GGGGG 0.539899 0.151866 -0.492288 0.477431 0.006216 0.045318 -0.153440 -0.376559 -0.129946 -0.211463 -0.131158 -0.113318 -0.099085 -0.102027 0.237056 0.104759 0.536310 -0.057831 -0.029307 0.703883 -0.041734 -0.760328 0.156642 -0.018806 -0.127235 0.161640 0.245524 0.018174 -0.093995 0.290942 0.407170 0.335229 0.211542 0.273415 0.005251 0.035471 -0.098285 -0.219297 0.635824 -0.387947 0.376471 -0.195064 -0.119304 -0.890574 0.167870 -0.232734 0.442155 0.470409 -0.034423 -0.519506 0.049652 -0.288746 -0.058985 0.303968 -0.205426 0.204282 -0.066918 0.039676 0.241618 0.210416 -0.408579 0.093106 -0.128780 0.443185 -0.811186 -0.151716 -0.140526 -0.280284 -0.586850 -0.326513 -0.251141 -0.132141 0.477539 0.179906 0.816377 -0.226047 0.051688 0.512661 -0.313627 -0.848982 0.263856 -0.302640 0.443282 -0.156690 0.075917 -0.274501 -0.474277 0.174719 -0.397061 0.472524 0.145064 -0.189937 -0.568198 0.606908 -0.532286 -0.272739 -0.727651 0.212302 0.188948 -0.026944 -0.205974 0.093677 0.083302 0.039279 -0.109913 0.022260 0.320550 -0.126191 0.008669 0.329436 0.029229 -0.521852 0.208550 -0.003105 0.112166 -0.037523 0.270632 0.218060 -0.342379 0.019194 0.152502 0.358058 -0.212831 0.418493 -0.962501 0.103846 -0.238361 0.016631
TTTTT -0.432793 -0.776716 0.465876 -0.068163 -0.581274 -0.136105 -0.091665 0.171400 0.496672 -0.287842 -0.106276 0.480739 -0.109196 -0.256766 0.114900 -0.152199 0.083425 0.069181 -0.035793 -0.366429 -0.304555 0.413174 -0.146634 0.168030 -0.043781 -0.305749 -0.516498 -0.185397 -0.663133 -0.294997 -0.267229 0.050951 -0.045664 -0.346025 -0.028547 0.294624 -0.224543 0.369093 0.209241 0.178260 -0.386139 0.152483 0.086235 -0.379343 0.076156 0.299628 -0.172702 -0.051621 -0.210030 -0.129049 -0.254735 0.105265 0.331991 -0.002588 -0.215940 -0.507754 -0.629537 -0.338880 0.429975 -0.260617 0.063272 -0.152306 -0.305043 0.282388 -0.314370 -0.037846 0.361768 0.091499 0.630072 -0.207772 0.485522 0.220386 -0.315225 -0.285671 -0.196973 -0.047466 0.146311 -0.180460 0.150368 -0.070458 -0.789694 -0.387617 0.117467 -0.006862 -0.137465 0.178732 0.120978 0.397990 -0.571451 -0.248821 -0.247180 -0.065430 -0.707942 0.363485 0.080268 -0.065959 0.606369 -0.229590 -0.840175 0.191390 -0.060932 0.002569 0.025067 0.220410 -0.517623 0.556744 0.126806 -0.428619 0.024742 -0.239696 0.175928 0.272464 0.328598 -0.296830 -0.351819 -0.573134 0.282972 -0.445792 0.077594 0.517569 -0.497009 -0.874363 0.060836 -0.715646 -0.012301 0.101574 0.025443 -0.030121
TGGGG 0.249110 0.333209 -0.315530 0.159351 -0.236015 -0.134448 -0.198070 -0.352200 -0.221396 -0.237935 -0.070504 -0.248991 -0.395228 -0.248054 -0.164186 -0.196585 0.325394 0.043672 -0.026422 0.420926 -0.234697 -0.570586 -0.088315 -0.182555 -0.354522 0.187691 0.171474 0.127398 0.017053 0.177625 0.395072 0.224627 0.346689 0.418018 -0.106676 0.016384 -0.012995 -0.229982 0.478706 -0.623105 0.102045 -0.007391 -0.017389 -0.694910 0.092480 -0.070363 0.362018 0.311935 0.042699 -0.150458 0.055288 0.007249 0.117059 0.180918 -0.268318 0.189191 -0.149797 0.115548 0.086641 0.044380 -0.165267 0.034449 -0.435002 0.287340 -0.843941 -0.368314 -0.108997 -0.428892 -0.286449 -0.049080 -0.134784 -0.152054 0.345826 0.128049 0.687378 -0.256622 0.143820 0.372888 -0.215742 -0.678103 -0.030378 -0.141093 0.400323 -0.099372 0.002276 -0.258712 0.079127 0.211429 -0.475925 0.263791 0.152340 -0.011289 -0.420594 0.628206 -0.389181 -0.287682 -0.486821 0.175470 0.009822 -0.027781 -0.041282 0.145807 -0.047429 -0.012645 -0.105436 0.015189 0.077502 -0.457534 -0.026500 0.090982 0.315155 -0.327368 0.101842 0.122674 -0.071434 -0.320397 0.258746 0.271302 -0.140209 0.017249 -0.068460 0.240841 -0.114549 0.538336 -0.650664 0.061257 -0.050470 0.100144
GGTGG 0.336853 0.401349 -0.150205 0.448991 -0.044002 0.145189 -0.071018 -0.284187 -0.093786 -0.563777 0.007601 -0.223027 -0.233760 -0.033289 -0.435883 0.108553 -0.163891 0.024953 -0.307720 0.439232 -0.202384 -0.528067 -0.365721 -0.109015 0.279962 -0.136289 0.190680 0.197173 0.411358 0.179047 0.676325 0.014311 0.165653 0.259666 0.311881 -0.152988 -0.053077 0.096415 0.011907 -0.012380 -0.555168 -0.176436 -0.266541 -0.330142 -0.079976 0.057607 -0.005315 0.359261 0.127804 0.178614 0.159454 0.055878 0.394157 0.278204 -0.120937 0.626495 -0.056865 0.017441 -0.411691 -0.358040 0.284301 0.098226 -0.805702 0.137033 -0.787915 -0.039543 -0.351612 0.141115 -0.276146 0.066026 -0.044052 -0.164248 0.157568 0.094775 0.583699 -0.552442 0.214739 0.249243 -0.593334 -0.342747 0.054609 -0.142011 0.139477 0.091554 -0.168399 -0.047470 0.316225 0.080981 -0.569751 0.342539 0.439310 0.098717 0.006796 0.204338 -0.470709 -0.358144 -0.592684 0.315518 0.057590 0.051292 -0.359676 0.377754 -0.326542 0.014541 0.663985 0.399951 0.006869 -0.460089 -0.022927 0.149649 0.624607 -0.202900 -0.072400 0.332145 0.094283 -0.386091 0.121364 -0.037476 -0.342472 -0.308305 0.176941 0.361846 -0.083808 0.608963 -0.372390 0.075309 0.055827 0.042737
GTGGG 0.316176 0.302026 -0.347820 0.313466 0.017098 -0.085763 -0.325995 -0.321167 -0.110420 -0.309358 -0.011585 -0.112491 -0.184128 -0.257695 -0.259328 -0.002568 0.090424 0.115230 -0.138590 0.629437 -0.079487 -0.550693 -0.695158 0.015317 0.045789 0.049237 0.186306 0.072768 0.040822 0.095444 0.431660 0.080716 0.366502 0.324444 0.157722 -0.130199 -0.160523 -0.091719 0.465738 -0.220534 -0.107578 -0.240522 -0.129626 -0.423885 -0.080710 0.132334 0.130583 0.385804 0.035962 -0.044588 0.259192 0.005135 0.345869 0.080809 -0.027639 0.420446 -0.052105 0.155450 -0.059954 0.036706 0.089244 -0.025523 -0.574960 0.316082 -0.601370 -0.347187 -0.285317 -0.397620 -0.297776 -0.143958 -0.159260 -0.247171 0.085537 0.131933 0.738213 -0.564274 0.460193 0.244782 -0.465533 -0.623655 0.085194 -0.170938 0.210771 -0.002732 -0.033106 -0.183236 0.136602 0.082316 -0.283809 0.412145 0.428590 0.115272 -0.117175 0.306602 -0.469003 -0.258002 -0.488831 0.407565 0.154624 -0.059029 -0.102553 0.208008 -0.228031 -0.037416 0.087449 -0.038314 -0.073004 -0.509155 0.032142 -0.035609 0.379342 -0.264538 0.163416 0.130918 -0.244433 -0.389279 0.264601 0.172933 -0.346263 -0.138970 0.141382 0.456294 0.147452 0.582887 -0.679400 -0.038523 -0.026712 -0.229226
TGTGG -0.038033 0.042128 -0.333402 0.166418 -0.197984 0.016103 -0.254216 -0.224643 -0.173722 -0.243308 -0.068744 0.028021 -0.376342 -0.282693 -0.625976 -0.234454 -0.033275 0.180654 0.025098 0.210723 -0.081996 -0.453759 -0.927819 -0.230327 -0.286769 0.081034 -0.050087 0.173032 0.316552 -0.144963 0.268657 -0.051183 0.197165 0.192138 0.142672 -0.330909 0.151412 -0.010148 0.087764 -0.140418 -0.228113 -0.210239 -0.039727 0.176619 -0.069882 0.437279 0.161213 0.307050 0.013477 0.146301 0.302025 0.017711 0.198901 0.038924 0.167928 0.447217 0.050501 0.234485 -0.242502 -0.067442 0.373521 -0.156006 -0.672797 0.029569 -0.312534 -0.489773 -0.141344 -0.421312 0.005520 0.001488 -0.075617 -0.046376 -0.007085 -0.030395 0.238098 -0.450256 0.416161 -0.170605 -0.335332 -0.274080 -0.335979 -0.106357 0.120527 0.070498 0.059304 -0.084903 0.371947 0.115802 -0.093138 0.623415 0.396436 0.340226 -0.063699 0.143673 -0.274629 0.023253 -0.455818 0.229484 -0.372702 0.076738 0.055467 0.100374 -0.270674 -0.079995 -0.045833 -0.016671 -0.117313 -0.527806 0.131922 -0.156543 0.342086 0.004380 0.160872 0.218495 -0.374734 -0.433567 0.128987 0.103035 -0.064620 -0.030377 -0.221051 0.195492 0.279005 0.314098 -0.190892 -0.081467 0.119926 0.106712
TTGGG -0.260017 0.137308 0.031964 0.071893 -0.370687 -0.076161 0.086791 -0.141068 0.029871 -0.203039 -0.038424 -0.177901 -0.199500 -0.199756 -0.157444 -0.243799 0.183735 0.081359 0.274608 0.461081 -0.088864 -0.284536 -0.089184 -0.165888 -0.323880 0.072173 -0.175099 0.212621 0.072292 0.245734 0.222311 0.111828 0.315447 0.165975 -0.438131 0.099023 -0.040625 -0.041846 0.311541 -0.307503 0.000314 -0.049963 0.069847 -0.591024 0.387324 -0.116712 0.185515 0.306148 -0.381930 -0.461619 0.001810 0.208347 -0.021730 0.132173 -0.380274 0.154989 -0.347150 -0.023814 0.189235 -0.067694 -0.170744 -0.117003 -0.462448 0.088550 -0.869111 -0.375838 -0.224456 -0.240318 -0.091177 -0.127686 -0.266500 0.001518 0.035850 0.110382 0.327779 -0.271379 -0.127537 0.281286 0.039469 -0.862112 -0.177408 -0.124437 0.151280 -0.250538 0.033673 -0.286445 0.272706 0.304846 -0.524869 -0.121574 0.016772 0.231596 -0.536977 0.608434 -0.245427 -0.067144 -0.296628 -0.244482 -0.278858 0.032214 -0.171929 0.070485 0.008925 0.151068 -0.041222 0.422251 0.133300 -0.334462 -0.205053 -0.030217 0.099874 -0.167948 0.124462 -0.083140 0.123381 -0.166326 -0.004563 0.149219 0.187206 0.178283 -0.154065 0.236304 -0.058155 0.129655 -0.266569 0.000181 -0.156224 0.084743
TTTGG -0.344893 -0.189641 0.137924 0.083227 -0.614883 -0.021425 0.102214 0.052933 0.132301 -0.375538 0.013382 -0.006394 -0.432234 -0.183424 -0.274110 -0.223103 -0.055156 0.096789 0.032357 -0.036986 -0.357067 -0.082155 -0.224966 -0.176438 -0.180395 -0.193629 -0.243902 -0.001281 0.035215 0.083825 0.202630 -0.003967 0.232226 -0.029632 -0.243633 0.055369 -0.025669 0.166060 0.229673 -0.190144 -0.474518 0.007164 0.076692 -0.356992 0.276594 0.076716 -0.013907 0.182558 -0.273470 -0.174799 -0.056921 0.297129 0.283835 0.222606 -0.272228 0.004141 -0.531954 -0.064255 0.213092 -0.362368 0.155499 -0.010921 -0.579709 0.083435 -0.721923 -0.244250 -0.106343 -0.145600 0.269224 -0.094475 0.093734 0.007576 -0.170659 0.083541 0.162601 -0.164754 0.014334 0.146547 -0.033666 -0.354123 -0.374802 -0.210415 0.163056 -0.037817 -0.102916 -0.017964 0.417682 0.430921 -0.642929 -0.130163 0.002226 0.045260 -0.469848 0.585738 -0.213566 -0.146186 -0.021824 -0.054312 -0.557291 0.090047 -0.224554 0.175556 -0.207072 0.168346 0.092931 0.619916 0.040061 -0.515035 -0.107519 -0.074330 0.258774 0.130564 -0.002659 -0.096283 -0.111782 -0.440385 0.111648 -0.092610 0.235979 0.160840 -0.299282 -0.138409 -0.143257 -0.063963 -0.071403 0.183908 0.034666 -0.021542
GTTGG -0.110605 0.469719 -0.026969 0.039886 -0.442023 0.001368 0.072351 -0.014408 -0.203141 -0.262877 0.076280 -0.302382 -0.512645 -0.192454 -0.321924 0.024062 -0.204498 -0.113598 0.237805 0.530201 -0.106897 -0.720417 -0.025545 -0.124280 -0.180668 -0.131946 -0.099331 -0.092241 0.505202 0.213229 0.242785 0.032570 0.142315 -0.133493 -0.420435 0.036339 -0.141578 0.025137 0.108303 -0.157631 -0.103221 -0.077585 -0.130020 0.065814 0.334109 0.071456 0.023443 0.156063 -0.325556 0.016757 -0.097823 0.293330 0.031900 0.212144 -0.034845 0.462776 -0.080860 -0.065036 -0.290147 -0.046478 0.124783 -0.290623 -0.739997 -0.109390 -0.536552 -0.455233 -0.250335 -0.162497 -0.138131 -0.014057 -0.405866 -0.060682 -0.125384 0.401462 0.320034 -0.244426 -0.162275 0.140637 -0.114508 -0.652879 0.195158 0.107215 0.020022 -0.142686 -0.029783 0.253157 0.733273 0.355252 -0.361992 0.024277 0.418750 0.269025 -0.135750 0.435437 -0.084523 0.103760 -0.375846 0.111552 -0.000300 0.023794 -0.031636 0.115507 -0.077484 -0.054333 0.352238 0.484568 -0.208142 -0.262926 -0.014482 -0.053759 0.252889 0.038475 -0.056838 0.221440 0.059353 -0.119030 0.030625 0.169117 0.379047 -0.006384 0.228370 0.281658 0.189843 0.125809 -0.230660 0.112598 -0.125693 0.026852
TGTTT -0.408952 -0.408352 0.063207 -0.110218 -0.433754 -0.043064 -0.162465 0.034935 0.217875 -0.115714 -0.096306 0.375200 -0.296261 -0.365584 -0.154028 -0.183686 0.134002 -0.017114 0.224647 -0.036213 -0.093716 -0.184819 -0.398493 -0.059052 -0.326067 -0.104602 -0.504786 -0.096967 -0.123006 -0.334785 -0.293173 0.063803 -0.112778 -0.417024 -0.172197 0.189980 -0.013020 0.274001 0.061396 0.235691 -0.173277 0.011880 0.102810 0.117805 -0.000810 0.491582 -0.002765 0.030965 -0.306235 -0.099122 -0.179073 -0.078039 -0.076162 0.036330 0.121489 -0.019345 -0.182677 -0.175948 0.031724 0.109014 0.158522 -0.384556 -0.377140 -0.041128 -0.178576 -0.400770 0.355886 -0.057291 0.469740 -0.151885 0.083036 0.188044 -0.143866 -0.216488 -0.228046 -0.100791 0.087005 -0.341401 0.083232 -0.139644 -0.712072 -0.081350 0.056330 -0.049077 0.106190 0.305032 0.331649 0.292994 -0.193332 0.295333 -0.067023 0.325188 -0.484431 0.211709 0.137245 0.208905 0.068005 -0.114223 -0.809075 0.248791 0.190503 -0.127642 0.201852 0.014138 -0.622200 0.270054 -0.021973 -0.358075 0.240126 -0.348345 0.055189 0.193159 0.402212 -0.054830 -0.388805 -0.384499 0.220673 -0.165132 0.121672 0.480106 -0.381954 -0.579108 0.479568 -0.651147 -0.105077 -0.107428 -0.161092 0.170692
TTTGT -0.441314 -0.552218 0.166159 -0.034245 -0.391797 -0.153713 0.095641 -0.038437 0.227659 -0.186285 -0.151088 0.351598 -0.051417 -0.193593 -0.140568 -0.259354 0.029765 -0.015809 0.249100 0.082632 -0.050718 -0.054728 -0.661305 0.050270 -0.154770 -0.100099 -0.457692 -0.070803 -0.241950 -0.252087 -0.329825 0.045623 0.153105 -0.311589 -0.139040 0.201239 -0.051444 0.281400 -0.025910 0.161214 -0.153825 -0.035783 0.051204 0.010550 0.087452 0.508427 -0.179159 -0.034337 -0.207304 -0.245174 0.066801 -0.017917 0.059851 -0.203039 -0.018520 -0.118717 -0.308815 -0.168318 0.145013 -0.055553 0.144910 -0.456394 -0.364556 0.013668 -0.108586 -0.263678 0.228660 -0.160707 0.438515 -0.232623 0.095021 0.157125 -0.325196 -0.081201 -0.228161 -0.157189 0.156602 -0.322003 0.083648 -0.457150 -0.513501 -0.167791 0.010910 -0.187175 0.034125 0.054045 0.320207 0.403706 -0.187671 0.119140 0.008745 0.451066 -0.515413 0.165246 0.173829 0.181103 0.179522 -0.264684 -0.747955 0.081237 -0.011416 -0.129323 0.054890 0.054863 -0.398646 0.268622 -0.025883 -0.201713 0.162307 -0.151941 -0.131354 0.398612 0.398889 -0.149033 -0.470134 -0.335523 0.359447 -0.030221 0.051599 0.408565 -0.369705 -0.494773 0.234282 -0.650642 0.038033 0.088639 -0.096722 -0.031164
TTGTT -0.527980 -0.212093 0.373008 -0.209633 -0.514747 -0.162823 0.011953 0.121291 0.201422 -0.037530 -0.059355 0.120002 -0.242000 -0.270558 -0.044964 -0.053121 -0.000366 -0.084361 0.508001 0.253994 0.162838 -0.127680 0.014070 0.038453 -0.280929 -0.027696 -0.595828 0.011152 0.097780 -0.052353 -0.278420 0.006051 -0.090301 -0.335769 -0.597208 0.318366 -0.108928 0.284344 -0.053190 0.212917 0.114056 0.101732 0.122166 -0.034606 0.399633 0.331964 -0.166349 -0.022756 -0.559666 -0.306918 -0.248785 0.209789 -0.278108 0.031486 -0.247613 -0.022635 -0.289220 -0.219282 0.012800 0.056522 -0.043930 -0.437524 -0.361754 -0.043297 -0.341643 -0.463254 0.124430 0.112450 0.220873 -0.174230 -0.311573 0.226082 -0.375299 -0.019893 -0.343012 -0.124056 -0.315970 -0.266985 0.246415 -0.539394 -0.464916 0.118422 -0.099408 -0.306170 0.126862 0.263245 0.595366 0.314624 -0.239342 -0.146238 0.044398 0.593641 -0.529852 0.251777 0.246861 0.497909 0.155036 -0.368631 -0.597928 0.188202 0.113644 -0.270200 0.181607 0.072497 -0.319361 0.680681 0.027114 -0.215343 -0.136462 -0.305624 -0.001262 0.172397 0.248244 -0.101965 0.001103 -0.215026 -0.040073 -0.104041 0.519913 0.461607 -0.309798 -0.248715 0.456386 -0.646892 0.142553 -0.077805 -0.255041 0.175063
TTTTG -0.620310 -0.370263 0.161250 -0.051567 -0.556407 -0.109868 -0.017901 0.182428 0.326901 -0.176237 -0.080987 0.301671 -0.021945 -0.341193 -0.220053 -0.223493 0.013751 0.000755 0.272372 -0.064774 -0.194699 0.117372 -0.352334 -0.109394 -0.251356 -0.129513 -0.618974 0.038277 -0.285766 -0.020601 0.098251 0.097355 0.147223 -0.244413 -0.288059 0.186958 -0.006959 0.172640 0.177962 0.110738 -0.283408 -0.052214 0.118258 -0.204894 0.228884 0.098085 -0.171648 0.107411 -0.275613 -0.248697 -0.177417 0.059448 0.070186 0.079611 -0.059387 -0.058781 -0.551673 -0.142106 0.332372 -0.340756 -0.045794 -0.320362 -0.421121 0.004971 -0.488364 -0.201378 0.176231 0.033693 0.486010 -0.084189 0.164747 0.088354 -0.265912 -0.187179 -0.262389 -0.058048 -0.091610 0.065902 0.260294 -0.230858 -0.544835 -0.324075 0.107584 -0.002990 -0.046655 -0.034725 0.206451 0.443457 -0.542269 -0.110583 -0.249279 0.286722 -0.518879 0.419386 0.091265 0.035878 0.072109 -0.134727 -0.683797 0.132422 -0.247361 0.037602 0.039506 0.308559 -0.282727 0.544326 -0.066066 -0.356714 -0.019812 -0.224396 0.067206 0.205109 0.318445 -0.320967 -0.177319 -0.347587 0.298096 -0.220163 0.147192 0.445838 -0.397295 -0.302756 0.135437 -0.564782 0.092358 -0.171265 -0.014507 -0.008967
GTTTT -0.286367 -0.369350 0.291822 -0.044048 -0.557448 -0.106449 -0.129328 0.161022 0.325153 -0.307145 -0.095083 0.319144 -0.258603 -0.309823 0.081265 0.125855 0.013618 -0.125662 0.110868 0.039699 -0.188611 -0.229101 -0.059402 0.136175 0.045723 -0.390549 -0.434403 -0.317339 -0.336014 -0.156833 -0.212266 0.141299 -0.082917 -0.518795 -0.204684 0.403988 -0.297475 0.364248 0.205331 0.234442 -0.255079 0.087312 0.024144 -0.127041 0.053324 0.347183 -0.178428 -0.097959 -0.330992 -0.119603 -0.352708 0.015119 0.186488 0.088255 -0.041326 -0.162362 -0.376844 -0.435761 0.122038 -0.061971 0.088268 -0.360493 -0.446563 0.119708 -0.262084 -0.322339 0.296366 0.125062 0.470802 -0.155774 0.138634 0.096652 -0.308651 0.009269 -0.107222 -0.073017 0.022121 -0.149451 0.056737 -0.271999 -0.409859 -0.183794 0.100961 -0.059221 -0.107632 0.504359 0.368789 0.441912 -0.501251 -0.092399 0.005300 0.017997 -0.494257 0.370817 0.118170 0.008668 0.272240 -0.009410 -0.540072 0.103524 -0.016461 -0.056495 0.169554 0.035093 -0.333060 0.529718 -0.045981 -0.346298 0.181267 -0.258248 0.152183 0.231731 0.303871 -0.105105 -0.352923 -0.403491 0.315659 -0.335269 0.131451 0.429827 -0.120453 -0.610874 0.318379 -0.669552 -0.221758 0.120188 -0.189195 -0.089144
GGGTG 0.324400 0.375944 -0.432250 0.411560 0.174217 0.064350 -0.289288 -0.284492 0.005192 -0.225352 -0.082268 -0.027296 -0.016542 -0.198912 -0.262547 0.111657 0.148745 -0.033461 -0.137274 0.554059 -0.023530 -0.471193 -0.572712 -0.087018 0.111695 0.136152 -0.007425 0.321738 0.057964 0.082997 0.519834 0.163538 0.063641 0.178595 0.218141 -0.124955 -0.123213 -0.093165 0.288953 0.055317 -0.083437 -0.201103 -0.150010 -0.359110 -0.147194 0.065773 0.093806 0.470232 0.135397 -0.014950 0.047385 -0.300012 0.158640 0.245977 0.033693 0.557533 0.050021 0.052330 -0.138515 0.042396 -0.048818 -0.108418 -0.465775 0.266075 -0.674661 -0.056492 -0.177062 0.068997 -0.281078 -0.111309 -0.159681 -0.210426 0.288217 -0.141013 0.519923 -0.570730 0.239661 0.215023 -0.444303 -0.357455 -0.122385 -0.244613 0.152061 0.031358 -0.044674 -0.124906 -0.202295 -0.028110 -0.320939 0.583102 0.285888 0.222384 -0.195355 0.260808 -0.442055 -0.294280 -0.714538 0.295821 0.039531 0.203500 -0.270681 0.236715 -0.124990 0.039670 -0.019779 0.042421 -0.104477 -0.520638 -0.010715 0.018386 0.293191 -0.420601 0.246585 0.078787 0.009148 -0.229397 0.226668 0.014183 -0.483942 -0.056608 0.121664 0.376236 0.239612 0.445297 -0.590550 -0.324927 -0.154744 0.010784
TTGTG -0.510537 -0.082344 -0.106001 0.032708 -0.137411 -0.135839 -0.212649 -0.002572 0.100121 -0.023387 -0.049358 0.209689 0.000140 -0.321478 -0.489927 -0.306896 -0.026534 0.091983 0.393958 0.269844 0.094976 -0.050291 -0.963177 -0.180675 -0.281552 0.169062 -0.500350 0.271473 0.119910 -0.098614 0.153284 -0.058248 0.201910 -0.063009 -0.145589 -0.158431 0.019952 0.083935 0.099272 0.163643 -0.048452 -0.194467 0.089408 0.068774 0.144883 0.334145 -0.106229 0.195574 -0.219065 -0.141502 0.134257 0.003796 -0.026789 -0.124938 0.086276 0.349897 -0.158701 0.116749 0.054114 -0.070870 0.020345 -0.384593 -0.546483 -0.054669 -0.261537 -0.344720 -0.077304 -0.132045 0.128182 -0.137519 -0.170865 0.002166 -0.231256 -0.196688 -0.220782 -0.402749 0.095781 -0.109852 0.028755 -0.352450 -0.457994 -0.128199 -0.016308 -0.049186 0.085158 -0.061870 0.329968 0.187890 -0.072792 0.329191 0.156657 0.703313 -0.257695 0.052479 -0.022555 0.292376 -0.236229 -0.054821 -0.493619 0.201449 -0.058650 -0.056172 -0.181722 0.154482 -0.304307 0.240724 -0.194847 -0.407340 -0.010727 -0.221437 0.006714 0.079616 0.409268 -0.125025 -0.231922 -0.274233 0.168020 -0.003614 0.045844 0.262027 -0.295163 0.179705 0.400099 -0.185644 0.075463 -0.399907 -0.155310 0.009431
GTGTG 0.036299 0.153170 -0.381141 0.268190 0.291690 -0.120518 -0.594966 -0.164664 -0.020696 -0.136105 -0.048544 0.253231 0.065800 -0.355658 -0.505673 -0.071774 -0.141074 0.182173 0.041514 0.469346 0.225114 -0.164159 -1.462822 0.049313 0.081620 0.105336 -0.179748 0.224211 0.057424 -0.188694 0.327809 -0.004882 0.122465 0.034887 0.411550 -0.338993 -0.226042 -0.019814 0.230715 0.280141 -0.181660 -0.368678 -0.078193 0.259676 -0.342405 0.536377 -0.119148 0.262754 0.061373 0.209384 0.265572 -0.245867 0.301470 -0.119432 0.474465 0.607912 0.158919 0.270157 -0.227105 0.068152 0.231787 -0.285836 -0.554954 0.169446 -0.051916 -0.325602 -0.193709 -0.289136 -0.097887 -0.153909 -0.042577 -0.287517 -0.188063 -0.163076 0.101043 -0.659737 0.598237 -0.107595 -0.457172 -0.066317 -0.173885 -0.192200 -0.049506 0.145258 -0.017470 0.082498 0.142792 -0.107045 0.097041 0.814597 0.460879 0.463550 0.203773 -0.124635 -0.198908 0.020205 -0.365312 0.449440 -0.063269 0.071410 -0.081145 0.058198 -0.371285 0.000354 -0.190044 -0.188416 -0.364735 -0.556324 0.191097 -0.242048 0.234285 -0.063733 0.428676 0.070283 -0.447069 -0.381348 0.275957 0.034134 -0.401872 -0.032422 -0.026499 0.360731 0.559535 0.239138 -0.283948 -0.526946 -0.071189 -0.252792
GGGGT 0.373608 0.398685 -0.167864 0.292188 0.126520 -0.005226 0.143195 -0.382189 0.087742 -0.376452 -0.123231 -0.209732 0.006298 -0.090151 0.080616 0.104953 0.296502 -0.180921 -0.077545 0.721368 -0.113291 -0.585186 -0.112486 -0.012427 0.147774 0.019383 0.148431 0.164858 -0.151431 0.141438 0.207829 0.258344 0.211008 0.066821 0.097666 0.282863 -0.091258 0.014692 0.152710 -0.173851 0.035178 -0.036768 -0.216463 -0.769250 0.014370 0.003598 0.153482 0.288197 0.052866 -0.206693 -0.060688 -0.242554 0.194903 0.060776 -0.247362 0.315991 -0.038935 -0.162749 -0.140626 0.116594 -0.156750 -0.119434 -0.424106 0.293762 -0.727704 -0.121760 -0.048937 0.116330 -0.214356 -0.084544 -0.212682 -0.018451 0.288187 0.104182 0.653045 -0.442517 0.158145 0.122861 -0.253672 -0.836535 0.036227 -0.115449 0.240144 -0.229043 -0.047932 -0.053603 -0.156198 0.067402 -0.476949 0.268969 0.198438 0.242073 -0.535816 0.412349 -0.352568 -0.470314 -0.592960 -0.105722 0.133660 0.151745 -0.246684 0.096171 0.109399 0.058116 0.026333 0.173497 0.059083 -0.258632 -0.021521 0.183751 0.192045 -0.202528 0.233738 0.185403 0.091909 -0.107754 0.383701 0.197829 -0.485951 0.001976 0.159630 0.161822 0.092398 0.274758 -0.697311 0.037078 -0.222342 0.093155
TGTGT -0.280592 -0.275206 -0.247641 0.012570 -0.020307 -0.130120 -0.128524 -0.209438 -0.023629 -0.056351 -0.246839 0.344466 -0.046781 -0.288819 -0.444802 -0.311598 0.007384 0.004798 0.266364 0.269712 0.124300 -0.346294 -1.282729 -0.122787 -0.330191 0.188546 -0.392339 0.092763 0.155606 -0.388253 -0.225756 -0.057087 0.129953 -0.187039 0.103179 -0.119211 0.126725 0.122995 -0.146436 0.144404 0.163788 -0.202770 0.014791 0.414421 -0.096464 0.780552 0.026755 0.160831 -0.078391 0.062842 0.336386 -0.254306 -0.033437 -0.244124 0.452629 0.299499 0.188279 0.135573 -0.253653 0.177753 0.262221 -0.533642 -0.489004 -0.090175 0.244939 -0.466687 0.199932 -0.453269 0.223665 -0.181224 -0.171675 0.154079 -0.093541 -0.231661 -0.207989 -0.398258 0.463814 -0.537831 -0.133498 -0.285938 -0.457348 -0.092427 -0.011258 -0.039454 0.222974 0.103222 0.257932 0.149306 0.310610 0.891954 0.292070 0.779995 -0.160484 -0.265982 0.027824 0.304001 -0.262151 -0.026146 -0.618139 0.205860 0.286702 -0.215233 -0.036631 -0.049231 -0.515250 -0.174318 -0.209877 -0.178386 0.318658 -0.169923 -0.124613 0.262457 0.508461 0.095395 -0.562084 -0.238523 0.374499 0.219197 -0.184563 0.289107 -0.339926 -0.146661 0.682583 -0.292039 -0.057734 -0.238647 -0.088168 0.082237
TGGTG -0.033954 0.506414 -0.161484 0.080393 -0.128566 -0.060494 -0.383121 -0.122029 -0.080461 -0.259054 0.098779 -0.101486 -0.254765 -0.372223 -0.698718 -0.228358 -0.153344 0.163834 -0.124030 0.092667 -0.144411 -0.108177 -0.791188 -0.287054 -0.117408 0.033221 -0.090904 0.447641 0.310897 -0.053042 0.537056 -0.007244 0.080126 0.263315 0.180292 -0.263630 -0.006064 -0.037970 0.054377 -0.055138 -0.568848 -0.002607 -0.082124 0.046955 -0.207743 0.262471 0.010779 0.209559 0.187053 0.501376 0.022312 0.016680 0.268791 0.120675 0.136895 0.633685 -0.004067 0.224161 -0.450892 -0.267388 0.280634 -0.098699 -0.818819 0.001088 -0.537579 -0.273755 -0.178652 -0.031415 0.045224 0.208146 0.127748 -0.138442 0.068460 -0.218912 0.134660 -0.518489 0.273974 -0.035044 -0.311694 0.110393 -0.424451 -0.024292 0.072552 0.168205 -0.156068 0.055480 0.426369 -0.011279 -0.363297 0.385300 0.287016 0.438633 0.133465 0.069979 -0.118422 -0.166908 -0.459263 0.248095 -0.244058 0.150034 -0.100659 0.188452 -0.300117 0.032029 0.105802 0.140039 -0.353584 -0.728249 -0.005075 -0.224690 0.651066 -0.062667 0.074594 0.216459 -0.119999 -0.479911 0.168924 -0.011561 -0.177193 -0.053195 -0.179024 0.196814 0.205388 0.383688 -0.067739 -0.423915 0.051539 0.139744
TGTTG -0.589108 0.145054 -0.271267 -0.134769 -0.266940 -0.066871 -0.039096 -0.009712 -0.132512 0.085673 -0.095285 0.037050 -0.173887 -0.431777 -0.490067 -0.285895 -0.001130 -0.129624 0.639636 0.368117 0.062974 -0.485571 -0.647798 -0.315262 -0.638071 0.223670 -0.615773 0.265267 0.354899 0.029898 0.114507 0.088343 0.074869 -0.245305 -0.414125 -0.009348 0.156489 -0.053062 -0.100726 0.029360 0.163644 -0.121996 0.008645 0.321805 0.228409 0.300752 0.012909 0.237813 -0.360523 -0.079894 -0.061959 -0.094236 -0.348742 -0.025906 0.309255 0.498535 0.035076 0.056446 -0.255203 -0.008954 -0.032245 -0.613961 -0.573794 -0.304460 -0.188634 -0.526959 0.125376 -0.185635 0.119345 0.001744 -0.419656 0.099449 -0.107652 -0.121703 -0.254723 -0.189616 -0.164310 -0.223444 0.212121 -0.429003 -0.314943 0.002519 0.005890 -0.071663 0.260467 0.083140 0.429890 0.223671 -0.025651 0.406137 0.074111 0.866673 -0.224397 0.095603 0.180658 0.410386 -0.607562 -0.065819 -0.475482 0.222530 0.097921 -0.151552 0.178768 0.047467 -0.315396 0.245598 -0.279367 -0.232882 0.151636 -0.244683 -0.063533 0.135847 0.375421 0.005949 -0.095458 -0.035962 0.128845 0.187256 0.253351 0.373391 -0.165350 0.158809 0.622611 -0.340673 0.089811 -0.413509 -0.158105 0.279494
TTTAT -0.374101 -0.452009 0.504741 -0.187684 -0.100158 -0.448388 0.078202 -0.009874 0.245432 -0.115800 0.110538 0.151441 -0.135349 -0.230561 0.014795 -0.511242 0.140205 0.040691 -0.122518 -0.204220 -0.714815 0.537711 0.288896 0.076779 -0.123337 0.045994 -0.088729 -0.255180 -0.377116 -0.464513 -0.340988 -0.123647 -0.041952 0.019801 -0.058388 0.112053 -0.342926 0.332722 -0.147545 0.055308 -0.331564 0.358467 -0.015914 -0.109644 0.174863 0.159460 -0.338730 -0.209214 0.140562 -0.114661 -0.191525 -0.213478 0.150183 0.051595 -0.003939 -0.424344 -0.040742 -0.117969 0.131291 -0.154682 0.185735 0.223000 0.009855 0.101134 0.067919 0.192015 0.188188 -0.047576 0.122246 -0.319144 0.230056 0.183220 -0.303714 -0.495520 0.207995 -0.201725 0.259416 -0.388441 0.225268 -0.196269 -0.539609 -0.312573 0.005969 -0.102894 0.003244 0.257770 0.112322 0.193890 -0.193494 -0.223362 -0.190004 0.125620 -0.674543 0.194075 0.106773 0.053410 0.537650 -0.178410 -0.571249 0.418392 0.110469 -0.147396 -0.343688 -0.000056 -0.512212 0.324651 0.282475 -0.304480 0.006902 -0.215417 0.100479 0.123802 -0.078211 0.134414 -0.072925 -0.407222 0.022212 -0.168510 0.204426 0.147906 -0.474052 -0.893606 -0.016202 -0.493735 -0.276982 -0.284184 -0.057970 0.018607
TGGTT -0.180292 0.371465 0.294397 -0.277327 -0.477798 -0.068052 -0.076051 0.013777 0.037923 -0.307595 0.078131 -0.109793 -0.541733 -0.335442 -0.265153 -0.001378 -0.074202 -0.114078 0.078292 0.079438 -0.159267 -0.292582 0.176563 -0.120201 -0.113759 -0.107165 -0.192863 0.108215 0.278411 0.032659 0.035934 -0.000925 -0.210672 -0.081699 -0.324583 0.214832 -0.124893 0.145422 -0.136250 -0.058912 -0.367363 0.311546 -0.063438 -0.039843 0.119528 0.301138 -0.058740 -0.037427 -0.105494 0.319967 -0.307367 0.246064 0.032590 0.229381 -0.226752 0.243043 -0.144928 -0.182513 -0.535572 -0.195102 0.194093 -0.238118 -0.710877 -0.068922 -0.528622 -0.421213 0.043067 0.241617 0.205205 0.127843 -0.084313 0.190857 -0.090017 0.077123 -0.014883 -0.244764 -0.197845 -0.229241 0.013967 -0.231607 -0.494770 0.221976 0.001810 -0.080734 -0.110886 0.394476 0.748437 0.174021 -0.555595 -0.032931 0.164221 0.398283 -0.229900 0.266437 0.141782 0.064530 -0.044236 -0.159202 -0.397636 0.195502 0.100219 -0.046594 0.067174 -0.019529 -0.019654 0.558130 -0.149950 -0.485018 -0.093569 -0.293134 0.641111 0.156045 -0.021684 0.222909 0.065064 -0.367041 0.018693 -0.060832 0.308740 0.179335 -0.159065 -0.224841 0.334467 -0.143075 0.047950 -0.090179 -0.052046 0.285469
GTTTG -0.529072 0.103213 -0.056780 -0.062609 -0.555966 -0.077437 -0.026136 0.136591 0.112110 -0.214673 0.001670 0.139121 -0.218080 -0.405544 -0.267618 0.021877 -0.107232 -0.157031 0.441554 0.388515 -0.113022 -0.494802 -0.280481 -0.118347 -0.254746 -0.210785 -0.618463 -0.083941 0.025156 0.129720 0.196732 0.202116 0.126496 -0.484778 -0.498355 0.288835 -0.134858 0.154081 0.202724 0.176057 -0.213354 -0.133955 -0.081038 0.073863 0.245650 0.163257 -0.154996 0.108041 -0.461212 -0.171769 -0.310100 -0.021316 -0.069843 0.154536 0.130566 0.396392 -0.322768 -0.224755 0.015516 -0.159065 -0.005413 -0.566722 -0.648888 -0.269601 -0.415081 -0.485132 0.120377 0.056940 0.328979 -0.121159 -0.233982 -0.057449 -0.291596 0.097879 -0.126043 -0.079995 -0.224679 0.098854 0.196508 -0.466939 -0.170427 -0.187232 0.027864 -0.105635 -0.026149 0.266203 0.488196 0.527839 -0.504009 -0.012048 -0.000966 0.412711 -0.341800 0.452665 0.149540 0.152799 -0.312511 0.106510 -0.391229 0.084291 -0.227526 0.002315 0.176836 0.155296 -0.081870 0.589269 -0.336139 -0.365444 0.177308 -0.251121 0.072420 0.127394 0.299441 -0.137841 -0.188387 -0.182591 0.328885 -0.066806 0.229091 0.406385 -0.005289 -0.040799 0.394025 -0.524953 -0.117306 -0.160016 -0.267586 -0.023701
TTATT -0.105223 -0.591949 0.578149 -0.035544 -0.107161 -0.271550 -0.261604 0.221546 0.329615 0.112441 0.141765 -0.024231 -0.024365 -0.005845 -0.094181 -0.357781 0.090808 0.254742 0.153321 -0.287640 -0.536948 0.771583 0.205144 0.234847 -0.102890 0.323619 -0.008109 0.111773 -0.262373 -0.340406 -0.437899 -0.275070 -0.170336 0.025183 0.006013 -0.055209 -0.703691 0.258130 -0.342213 0.418460 0.098140 0.241922 -0.017322 -0.479565 0.270003 0.195609 -0.062765 -0.198017 0.025652 -0.410602 -0.080337 0.334036 0.128552 -0.449557 -0.344974 -0.365033 -0.007271 -0.100108 -0.156677 0.063552 0.000848 -0.033562 -0.337115 0.082530 -0.006432 0.187363 -0.154546 0.088705 -0.152298 -0.154644 0.217264 0.344615 -0.221749 -0.493782 0.070968 -0.551285 0.054441 -0.526042 0.148762 -0.505638 -0.879325 -0.000525 -0.257807 -0.360996 0.164346 0.367121 0.309093 0.114124 -0.068039 -0.277165 0.090819 0.230363 -0.539860 0.083278 0.258930 0.262010 0.451543 -0.180820 -0.365309 0.176806 0.370559 -0.258100 -0.462447 0.107993 -0.791483 0.388226 0.381365 -0.115887 -0.349158 -0.234104 0.147358 0.115824 -0.045824 0.321322 0.257101 -0.222927 -0.416962 -0.129971 0.190517 0.438037 -0.445937 -0.985661 -0.152491 -0.182988 -0.110784 -0.228936 -0.149879 0.110641
TTGGT -0.438350 0.256971 0.412531 -0.054625 -0.270398 -0.035149 0.358675 -0.042467 0.225722 -0.415420 0.017986 -0.138365 -0.000128 -0.119400 -0.356528 -0.288645 -0.224432 -0.041268 0.203030 0.383517 -0.064591 -0.031897 -0.386672 -0.097983 -0.011038 -0.184207 -0.322709 0.306805 0.243113 0.119906 0.047436 -0.003096 0.189287 -0.158368 -0.242983 0.176821 -0.123311 0.234226 -0.362540 0.130310 -0.504444 0.057743 -0.073329 -0.248503 0.216678 0.116348 -0.213145 0.087192 -0.258354 -0.096005 -0.021427 0.225731 0.155925 -0.155192 -0.256945 0.293367 -0.244614 -0.179365 -0.292654 -0.379180 0.184472 -0.322593 -0.821532 -0.157161 -0.662924 -0.159187 -0.142646 0.184250 0.298253 0.082866 -0.178134 0.120201 -0.258787 0.019580 -0.027229 -0.394024 -0.133368 -0.150117 0.038758 -0.586737 -0.298531 0.034752 -0.104522 -0.230047 -0.104998 0.045444 0.634073 0.259528 -0.597293 -0.223628 0.096008 0.722485 -0.364784 0.204048 0.070641 -0.149628 -0.175777 -0.463198 -0.357231 0.146221 -0.283251 0.068539 -0.036203 0.162030 0.302183 0.703973 -0.106792 -0.303313 -0.174440 -0.037108 0.295848 0.325306 0.090909 0.022138 0.158921 -0.221301 0.067372 0.041155 0.090744 0.110419 -0.135437 0.011732 0.129493 -0.131495 0.192478 0.017647 -0.164633 0.077117
GGTTG -0.260848 0.459397 -0.078927 0.079121 -0.077554 0.154958 0.166923 -0.043847 -0.022995 -0.305215 -0.030104 -0.134874 -0.118808 -0.119719 -0.368912 0.029445 -0.012023 -0.284284 0.289122 0.578764 -0.050039 -0.605219 -0.023849 -0.190159 -0.095762 0.035813 -0.320227 0.286616 0.391449 0.356107 0.404770 0.090733 -0.016148 -0.122692 -0.256071 0.085523 -0.080011 0.037926 -0.162211 0.077596 -0.213673 -0.085692 -0.239661 -0.189814 0.279996 -0.028384 -0.063531 0.247826 -0.236952 -0.047975 -0.201640 -0.026412 -0.114492 0.193529 -0.132682 0.636313 -0.046305 -0.198913 -0.463515 -0.331287 -0.061105 -0.322268 -0.677245 -0.226955 -0.723142 -0.109310 -0.126539 0.409643 -0.062044 0.057553 -0.323263 0.052309 0.114854 0.090978 0.121926 -0.290593 -0.388262 0.192811 -0.035785 -0.570821 -0.089239 -0.062296 -0.013449 -0.071590 -0.032125 0.026907 0.336228 0.208991 -0.574880 0.152071 0.051957 0.530340 -0.210216 0.320804 -0.039344 0.055877 -0.675086 -0.096105 -0.105978 0.217135 -0.306090 0.139451 0.107924 0.185687 0.348426 0.653663 -0.093868 -0.139319 -0.056351 0.001586 0.304779 -0.088069 0.106585 0.138222 0.350326 0.026903 0.033791 -0.003971 0.055058 0.096708 0.134549 0.294144 0.221268 -0.043057 -0.048638 -0.264554 -0.195102 0.299937
GTGTT -0.099803 -0.037532 0.015761 0.068194 -0.123152 -0.131781 -0.294075 -0.090694 0.070153 -0.152090 -0.047574 0.178384 -0.203175 -0.308444 -0.142056 0.117277 -0.109574 -0.053593 0.215674 0.437036 0.196276 -0.366577 -0.604356 0.143795 0.015760 -0.060555 -0.298309 -0.055917 0.098214 -0.218742 -0.166954 -0.004462 -0.102862 -0.278865 -0.012632 0.079267 -0.272145 0.259352 0.065000 0.326224 0.011726 -0.054672 -0.031083 0.153752 -0.045512 0.564347 -0.190467 0.035129 -0.239478 0.026500 -0.059430 -0.009050 0.052880 -0.034622 0.165057 0.248891 0.027004 -0.089217 -0.228819 0.207547 0.187697 -0.413525 -0.460100 0.137331 -0.103989 -0.453375 0.041230 -0.081453 0.035062 -0.213283 -0.240514 -0.053478 -0.289779 0.038215 -0.062801 -0.383510 0.166634 -0.281860 -0.231828 -0.357227 -0.288597 -0.012494 -0.094192 -0.121545 0.085286 0.408683 0.462076 0.109519 -0.036148 0.435380 0.384153 0.461669 -0.139557 0.021284 0.018229 0.266764 0.020962 0.103590 -0.258657 0.154947 0.147039 -0.132646 -0.031696 -0.081465 -0.269079 0.191666 -0.165624 -0.375705 0.143428 -0.238496 0.164000 0.064872 0.343429 0.122053 -0.316295 -0.284735 0.117143 -0.030227 -0.008023 0.205625 -0.043460 -0.122228 0.614065 -0.266016 -0.219048 -0.150913 -0.199255 -0.110936
TTTTA -0.160261 -0.662697 0.668694 -0.248952 -0.189745 -0.160381 -0.034125 0.184262 0.451938 -0.126733 0.043261 0.202724 -0.119022 0.055753 0.222132 -0.000408 -0.021496 0.041399 -0.255624 -0.282125 -0.507762 0.279670 0.226809 0.345797 0.158056 -0.087282 -0.148705 -0.203602 -0.365836 -0.461137 -0.330796 -0.124902 -0.159101 -0.241397 0.099670 0.201636 -0.546987 0.324495 0.075189 0.193715 -0.215419 0.245906 0.043360 -0.565993 -0.181203 0.304269 -0.238689 -0.351766 -0.150646 -0.116749 -0.036170 0.095911 0.267334 -0.079817 -0.044345 -0.526994 -0.312018 -0.338093 0.223276 0.128560 0.097334 0.130721 -0.138450 -0.075775 0.260469 0.071823 0.371155 -0.066290 0.207460 -0.309635 0.355043 0.165188 -0.268230 -0.307854 0.160480 -0.086425 0.223253 -0.293124 0.010491 0.044762 -0.499549 -0.197961 0.011648 -0.020572 -0.005273 0.424754 0.068522 0.163612 -0.367756 -0.137486 -0.205216 -0.125229 -0.482321 0.061035 0.127697 0.000521 0.432661 -0.034852 -0.604028 0.210567 0.343011 -0.006268 -0.213941 0.104259 -0.562339 0.321184 0.154889 -0.210095 -0.010749 -0.207513 0.099617 0.092960 0.110517 -0.046941 -0.112349 -0.393237 -0.032125 -0.214701 -0.004957 0.265968 -0.232591 -0.870093 -0.137977 -0.303902 -0.179106 0.226757 0.027098 -0.040391
TGGGT 0.029314 0.584505 0.026824 -0.072565 -0.136556 -0.130983 0.066972 -0.268099 0.037499 -0.424363 -0.030868 -0.322276 -0.254481 -0.256956 -0.291211 -0.200324 0.045221 -0.083619 -0.098805 0.375285 -0.242904 -0.325433 -0.372863 -0.138204 -0.090259 0.044957 0.028580 0.302082 0.110198 0.008385 0.179307 0.106024 0.235272 0.186758 -0.031989 0.255264 -0.073262 -0.017140 -0.100154 -0.241211 -0.384437 0.135100 -0.128863 -0.429384 -0.112282 0.134823 -0.027081 0.167976 0.119095 0.218535 -0.005618 -0.013968 0.297621 -0.113152 -0.217171 0.356937 -0.090404 -0.067554 -0.368790 -0.184892 0.089839 -0.227682 -0.708629 0.066454 -0.709762 -0.262251 -0.139542 -0.023755 0.102058 0.166597 -0.097216 -0.038170 0.188694 -0.034692 0.399170 -0.398977 0.170325 -0.022810 -0.111490 -0.507215 -0.267623 0.053202 0.203553 -0.148451 -0.086462 0.008179 0.421919 0.184322 -0.521027 0.080244 0.210352 0.421643 -0.326601 0.337025 -0.127922 -0.408399 -0.322139 -0.109905 -0.119209 0.111404 -0.071431 0.106278 -0.026952 0.009035 0.071127 0.206836 -0.222620 -0.480755 -0.025424 0.026870 0.582886 0.089617 0.073307 0.260894 -0.109602 -0.377203 0.375034 0.213567 -0.253531 0.018524 -0.097194 0.034990 0.175492 0.318840 -0.271574 0.038479 -0.110166 0.142877
GGTTT -0.076357 -0.123327 0.235201 0.101141 -0.333685 0.129715 0.060794 -0.033576 0.287651 -0.580420 -0.090404 0.196764 -0.319693 -0.059782 0.052162 0.243103 0.049380 -0.253683 -0.151063 0.196005 -0.221186 -0.378521 0.231328 0.057706 0.247471 -0.316976 -0.224982 -0.052407 -0.106454 0.043670 0.094910 0.137161 -0.176620 -0.353016 -0.011752 0.332724 -0.256565 0.312959 -0.000058 0.228678 -0.485551 0.122046 -0.181940 -0.467842 0.100672 0.217442 -0.133086 0.026183 -0.182645 -0.000622 -0.354125 -0.036507 0.216006 0.281466 -0.292956 0.093587 -0.318644 -0.430434 -0.243147 -0.280434 0.088343 -0.201757 -0.501217 0.148120 -0.664927 -0.099908 0.159388 0.564549 0.268189 -0.095927 0.124678 0.118889 -0.046016 0.003201 0.143787 -0.218817 -0.129794 0.020317 -0.150049 -0.302051 -0.399311 -0.181353 0.091652 -0.073057 -0.165955 0.284865 0.297882 0.289703 -0.784037 0.030605 -0.016652 0.096492 -0.509086 0.363058 -0.075134 -0.105218 -0.033024 -0.135185 -0.466438 0.308605 -0.191285 0.078438 0.109988 0.144055 0.111714 0.738582 0.116310 -0.315055 0.060290 -0.054053 0.407984 0.066917 0.196792 0.072784 0.009150 -0.282298 0.218132 -0.300807 -0.093845 0.219600 -0.046168 -0.406838 0.136482 -0.373742 -0.213351 0.116202 -0.221771 0.129698
AGGGG 0.436705 -0.176410 -0.224964 0.361085 0.034671 0.287535 -0.159986 0.083186 -0.169469 0.040233 -0.170962 0.059918 0.036385 0.309407 0.220991 0.298180 0.349441 -0.222505 -0.068345 0.489371 -0.081232 -0.610976 0.254752 0.157775 0.168148 0.041290 0.046192 0.012515 -0.104590 0.148600 0.178570 0.298369 0.119401 -0.058308 0.126690 -0.020271 -0.065448 0.020702 0.344012 0.072196 0.230288 -0.283172 -0.076385 -0.727805 0.314487 -0.261406 0.092136 0.330637 -0.092078 -0.443132 0.203429 -0.131371 -0.058195 0.328646 -0.186979 0.000239 -0.008317 -0.254415 0.029107 0.098786 -0.287102 0.205679 0.106673 0.364256 -0.513864 0.292303 0.150724 -0.008139 -0.209893 -0.195410 -0.172369 -0.140003 0.260188 0.262185 0.693876 -0.180500 0.067352 0.070472 -0.292419 -0.359258 0.428191 -0.361602 0.057227 -0.031378 0.128667 -0.353706 -0.379740 0.119001 -0.175807 0.327833 0.040881 0.038188 -0.299507 0.016011 -0.256676 -0.016546 -0.630504 0.142094 0.351061 0.088384 -0.013330 0.032289 -0.040880 0.166756 0.068453 -0.013691 0.103605 -0.011406 0.105178 0.136118 -0.457761 -0.352972 0.080310 -0.234509 0.167072 0.166686 -0.036109 0.172945 -0.305702 -0.053884 0.307031 0.333615 0.033494 0.229826 -0.852612 0.118673 -0.155619 -0.308771
GTGGT 0.098091 0.412889 0.069142 0.187091 0.105344 -0.078479 -0.065312 -0.253631 0.125994 -0.561878 0.042951 -0.078124 -0.018878 -0.205152 -0.492752 -0.067122 -0.305676 0.009364 -0.151335 0.543165 -0.016441 -0.281678 -0.941458 0.074230 0.380052 -0.231370 0.044914 0.205539 0.148288 -0.021060 0.273349 -0.045932 0.197559 0.007046 0.364593 -0.028576 -0.279090 0.162852 -0.269644 0.197538 -0.685269 -0.119104 -0.278112 -0.014605 -0.240176 0.403013 -0.283507 0.080294 0.176363 0.345731 0.169568 -0.012191 0.523267 -0.140155 0.077197 0.591941 0.037027 -0.038418 -0.620726 -0.252779 0.441039 -0.258845 -0.933452 0.028852 -0.368871 -0.195678 -0.238679 0.059378 0.139478 0.083632 -0.011755 -0.156292 -0.206796 0.080621 0.294234 -0.698319 0.417391 -0.172451 -0.413384 -0.427626 -0.042041 -0.045500 -0.046712 -0.014476 -0.206044 0.218045 0.546128 0.055124 -0.418676 0.301436 0.484560 0.582079 0.074902 -0.069767 -0.102491 -0.313652 -0.297940 0.094855 0.040307 0.128475 -0.237322 0.159934 -0.282464 -0.048290 0.431764 0.210735 -0.286403 -0.414924 0.072143 -0.077577 0.612293 0.206385 0.164610 0.333758 -0.216769 -0.363520 0.315451 0.075112 -0.450437 -0.202862 0.091929 0.189564 0.303790 0.299057 -0.201520 -0.047268 -0.048669 -0.147446
GTTGT -0.317975 0.031088 -0.046271 -0.006013 -0.251101 -0.130964 0.075899 -0.108727 -0.032187 -0.165174 -0.155263 0.059892 -0.223349 -0.253188 -0.188888 -0.033652 -0.094052 -0.201371 0.490257 0.629269 0.197579 -0.663105 -0.573916 -0.025137 -0.229153 -0.089078 -0.416170 -0.123560 0.198461 -0.088544 -0.293314 0.064683 0.121195 -0.458271 -0.331587 0.207933 -0.106386 0.201829 -0.118779 0.196013 0.126579 -0.135888 -0.103976 0.328957 0.185366 0.563222 -0.131412 0.031018 -0.332898 -0.138475 0.040506 -0.068536 -0.146452 -0.170086 0.200177 0.325970 0.033390 -0.174959 -0.304464 0.193512 0.150299 -0.688976 -0.577636 -0.165228 0.036311 -0.503878 0.113282 -0.153243 0.125364 -0.174385 -0.496937 0.095180 -0.319850 0.227112 -0.154282 -0.224987 0.007124 -0.337211 0.088678 -0.778857 -0.019381 0.072406 -0.067651 -0.284898 0.151373 0.335968 0.602534 0.302784 0.028911 0.311338 0.358958 0.752551 -0.311788 0.053204 0.203469 0.376077 -0.215104 -0.069651 -0.305970 0.128425 0.160061 -0.200984 0.159562 -0.097690 -0.158986 0.245338 -0.229516 -0.032826 0.243534 -0.110271 -0.095098 0.331894 0.368823 0.093392 -0.381538 -0.060597 0.306876 0.223356 0.156914 0.268194 0.019720 -0.037864 0.609094 -0.447975 -0.106512 0.042499 -0.301570 -0.003121
TATTT -0.400577 -0.567390 0.342825 -0.142915 0.075860 -0.328676 -0.018285 0.160996 0.169332 -0.028030 -0.020608 0.334545 0.079754 -0.053860 -0.058648 -0.603297 -0.045884 0.124120 -0.207747 -0.191674 -0.699136 0.599506 0.082856 0.078462 -0.179604 -0.067338 -0.224343 -0.180537 -0.334939 -0.339927 -0.275380 0.056282 -0.018466 -0.044832 0.005399 0.127937 -0.216739 0.284956 -0.171073 0.153994 -0.172887 0.461440 0.022077 -0.328031 0.208802 0.198638 -0.199019 -0.098868 -0.072896 -0.083624 -0.268491 -0.041714 0.399769 -0.143114 -0.194583 -0.571245 -0.128454 -0.147356 0.169792 -0.124623 0.080966 0.198345 -0.273149 0.122679 0.002113 0.233620 0.031720 0.166912 0.259661 -0.222429 0.296680 0.359575 -0.059962 -0.425243 -0.044192 -0.166678 0.266985 -0.442065 0.085692 -0.342033 -0.779853 -0.189329 -0.057783 -0.251673 0.075302 0.276431 0.062709 0.396419 -0.171437 -0.158618 -0.169526 0.103511 -0.427530 0.017246 0.007620 -0.128487 0.543288 -0.225487 -0.459544 0.097729 -0.106706 -0.471468 -0.182013 0.001832 -0.451697 0.466146 0.209817 -0.139708 -0.011704 -0.127957 -0.080113 0.016622 0.030526 0.100732 -0.055300 -0.534613 0.204823 -0.017986 0.223426 0.301690 -0.335240 -0.840869 0.087201 -0.333381 -0.167138 -0.220820 0.016976 0.001283
GGTGT 0.080791 0.035930 -0.161759 0.296443 0.161569 0.075369 0.082209 -0.302547 -0.013595 -0.371420 -0.177109 0.092500 0.091888 -0.046020 -0.296960 -0.050583 -0.004401 -0.132682 -0.056365 0.503869 0.076729 -0.478786 -0.790107 0.003931 0.143445 -0.035874 -0.114910 0.200733 0.174313 -0.077969 0.076093 0.038378 0.084862 -0.126238 0.323060 -0.014446 -0.084821 0.193384 -0.261406 0.245395 -0.247343 -0.160030 -0.209282 -0.046519 -0.169670 0.396523 -0.062906 0.225816 0.031915 0.017091 0.217567 -0.240558 0.127390 -0.101849 0.093457 0.443857 0.095980 -0.133440 -0.414710 -0.061316 0.207815 -0.300143 -0.574564 -0.023463 -0.277945 -0.089704 -0.004308 0.095255 -0.005665 -0.082748 -0.156062 -0.019804 0.129464 -0.054932 0.114623 -0.434644 0.264224 -0.198896 -0.402577 -0.423495 -0.146966 -0.102236 -0.006518 -0.060158 0.002369 0.105191 0.136013 0.086021 -0.145105 0.608697 0.310596 0.510873 -0.151326 -0.042136 -0.142528 -0.125028 -0.455191 -0.019918 -0.182699 0.134598 -0.149848 0.070964 -0.026502 -0.005725 0.151056 0.131634 0.002985 -0.138252 0.209855 0.106911 0.142714 0.065121 0.272094 0.246445 -0.173149 -0.150032 0.269179 0.095711 -0.401560 0.013893 0.022665 0.029864 0.247097 0.024294 -0.263701 -0.050045 -0.178614 0.096462
CGGGG 0.399050 0.114871 -0.520542 0.527725 0.235386 -0.015001 0.147036 -0.507306 -0.014851 -0.299425 -0.179167 -0.024834 0.016933 -0.117825 0.277960 0.212950 0.193792 0.042029 -0.045148 0.518881 0.270391 -0.451540 0.017351 -0.036721 0.017059 0.119749 0.236548 -0.157008 -0.049023 0.373805 0.321656 0.085076 0.000058 0.129243 0.021215 -0.050060 -0.141511 -0.205781 0.355353 -0.238460 0.420401 -0.095590 -0.192425 -0.277796 -0.056716 -0.070079 0.409352 0.291050 -0.000636 -0.463577 -0.121469 -0.331602 -0.066804 0.080348 -0.026918 0.254095 -0.051084 0.192495 0.386797 0.257304 -0.259262 0.025273 0.051476 0.221645 -0.281257 -0.234755 -0.361290 -0.027604 -0.647313 -0.382900 -0.224500 -0.099365 0.295792 0.003088 0.319516 -0.014348 -0.138254 0.806376 -0.150722 -0.696224 0.179900 -0.082081 0.430948 -0.154554 -0.043617 0.098136 -0.499627 -0.004713 -0.153764 0.369248 0.136046 -0.510622 -0.326371 0.610157 -0.486067 -0.248517 -0.353938 0.294416 0.085808 -0.113929 -0.436045 0.093614 0.136325 -0.082354 0.054409 -0.023613 0.576951 0.247039 0.017510 0.478219 0.121499 -0.388099 0.155899 0.164600 0.102876 0.123779 0.273649 -0.066821 -0.274897 0.001681 0.173794 0.245698 -0.468388 0.125650 -0.414391 0.114645 -0.265585 0.174665
GGGTT 0.255617 0.202568 0.014120 0.090563 -0.181790 -0.000169 0.013970 -0.201106 0.080203 -0.294966 -0.054797 -0.090632 -0.400518 -0.179429 0.177981 0.354369 0.253863 -0.349642 0.103845 0.612888 -0.035321 -0.673388 0.391897 0.060337 0.058920 -0.037714 -0.090792 0.000714 0.004541 0.110849 0.031415 0.183106 -0.167463 -0.150348 -0.249645 0.372687 -0.203237 0.077366 0.162615 -0.018823 0.125875 0.126892 -0.139492 -0.542447 0.191036 0.112093 0.045012 0.154610 -0.194568 -0.164970 -0.328240 -0.047132 -0.076329 0.295811 -0.381780 0.218070 -0.087694 -0.334309 -0.246446 0.137935 -0.140623 -0.220871 -0.407967 0.282582 -0.731186 -0.331952 0.033027 0.330709 -0.156029 -0.125095 -0.306079 0.079678 0.060960 0.173875 0.386945 -0.321826 -0.194779 0.016965 -0.140803 -0.736683 -0.216750 0.020516 0.122176 -0.244170 -0.032216 0.201671 0.144844 0.144204 -0.549717 0.144591 0.152440 0.175891 -0.568425 0.505175 -0.190646 -0.040485 -0.267584 -0.119359 -0.153284 0.236877 -0.074296 -0.015959 0.226302 -0.070000 -0.087890 0.454041 0.108834 -0.352941 -0.085061 -0.043440 0.254821 -0.222337 0.144777 0.124478 0.146402 -0.141974 0.109797 -0.021596 -0.059282 0.180750 0.085990 -0.053169 0.353709 -0.089406 -0.504849 0.026613 -0.319453 0.189457
TCTTT -0.230584 -0.643566 0.511137 -0.039062 -0.252369 -0.136952 -0.003486 -0.071670 0.652186 -0.021373 -0.178238 0.233570 0.152086 -0.541829 -0.124847 -0.086839 0.561494 0.113653 0.042844 -0.394657 0.228261 0.191115 -0.238749 0.180403 0.003267 -0.181068 -0.379836 -0.088753 -0.309740 -0.295936 -0.405719 -0.030964 0.011958 0.058252 -0.092806 0.349882 0.220206 0.273886 -0.188988 -0.030068 -0.422373 0.176717 0.171073 -0.230670 -0.292237 0.096370 -0.049353 0.116444 -0.145350 -0.181086 -0.175058 0.003321 -0.088207 -0.264548 -0.260476 -0.714472 -0.469121 -0.202910 0.212001 -0.235627 0.138210 0.012600 0.053498 0.436485 -0.538315 -0.151640 0.426132 0.087436 0.580083 0.080327 0.179104 0.223244 -0.215627 0.069208 -0.158294 -0.004414 0.094280 -0.368123 0.159043 0.110658 -0.496178 0.043711 0.139179 0.065463 -0.444240 0.422462 0.148619 -0.203777 -0.227787 -0.120461 -0.093658 -0.023674 -0.420828 0.105142 0.244638 -0.400851 0.432251 -0.539505 -0.333639 0.255627 -0.065331 -0.154441 0.168662 -0.297130 -0.220792 0.298113 0.468087 0.084971 0.004553 -0.156349 -0.006155 0.478370 0.220273 0.048493 -0.249168 -0.340322 0.044133 -0.585589 0.116213 0.097077 -0.732740 -0.130798 -0.017269 -0.083177 -0.072629 -0.094608 0.198563 -0.096851
ATTTT -0.350321 -0.582309 0.377310 0.013370 -0.318638 -0.153755 -0.099192 0.208542 0.365070 -0.164208 -0.025852 0.224470 0.202379 0.102090 -0.132693 -0.346673 -0.042973 0.181150 -0.088917 -0.537022 -0.508336 0.706024 -0.015660 0.185470 -0.103682 -0.048065 -0.277908 -0.093928 -0.510364 -0.259068 -0.330503 -0.195046 0.088559 0.004486 0.153108 -0.010439 -0.169898 0.235323 0.158681 0.266890 -0.115119 0.134071 0.060550 -0.358863 0.432420 0.314166 -0.061988 -0.043419 0.017642 0.031574 -0.112972 0.070824 0.397634 -0.021567 -0.246670 -0.526642 -0.250202 -0.119170 0.322967 -0.118618 -0.070573 0.163466 -0.028878 0.146405 -0.376748 0.199071 0.070907 0.027313 0.281020 -0.044070 0.441794 0.322516 -0.036246 -0.435272 -0.130586 -0.151115 0.252594 0.080647 0.039797 -0.061764 -0.782093 -0.335201 -0.113590 -0.102537 -0.113128 -0.064740 -0.028780 0.389966 -0.088178 -0.211157 -0.209283 0.009584 -0.520186 0.135889 0.167204 0.018998 0.692641 -0.353820 -0.537337 0.221142 0.083160 -0.013308 -0.162793 0.382259 -0.433964 0.300360 -0.023415 -0.109528 -0.236187 -0.172776 0.008728 -0.062427 0.097230 -0.195737 -0.011165 -0.316221 0.063833 -0.157727 -0.024139 0.465536 -0.529757 -0.967641 -0.095113 -0.402503 0.204137 0.004891 -0.034266 0.010364
GGCGG 0.446123 -0.516028 -0.731806 0.738530 0.150324 0.374885 0.310726 -0.023083 0.374885 -0.143522 -0.127117 0.021017 -0.515699 0.030658 -0.120786 0.225453 0.095307 -0.183009 0.132572 0.161831 -0.223187 -0.786874 -0.358471 -0.243219 -0.080409 -0.016835 0.137228 -0.058917 -0.216157 0.560218 0.832196 -0.246320 -0.239893 -0.385371 0.124528 -0.389178 -0.169946 -0.218088 0.020234 -0.341094 0.365881 -0.039367 -0.235929 0.268115 0.035073 -0.044212 0.050751 0.043023 -0.164478 -0.291846 -0.100998 -0.062528 0.076524 0.468258 0.016696 0.383227 0.055118 0.230290 0.281501 -0.097165 0.130702 -0.002566 -0.421593 0.010561 -0.250687 -0.369885 -0.334296 0.258651 -0.816808 -0.215238 -0.197959 0.121100 0.046567 0.131091 0.331238 -0.267713 -0.073583 0.762487 -0.179201 -0.473914 0.378900 -0.276554 0.091923 0.339360 -0.088256 0.374474 -0.660549 0.034467 0.108218 0.219887 0.372016 -0.506707 0.020587 0.582503 -0.653259 -0.026515 -0.405958 0.332228 -0.351391 -0.103493 -0.789071 0.168141 -0.157665 -0.308754 0.267434 0.272408 0.621757 0.034354 0.219271 0.514008 -0.243407 -0.354762 -0.361618 0.364501 0.324160 0.121167 -0.201729 -0.010640 0.097207 -0.122307 0.222207 0.306913 -0.568365 0.079533 0.007315 0.050376 0.145675 0.066288
GCGGG 0.290400 -0.125602 -0.522216 0.476652 0.453065 0.209098 0.052079 -0.341223 0.257708 -0.153518 -0.076779 -0.094651 -0.121731 -0.145433 0.111117 0.034877 0.257836 0.046079 0.016407 0.052983 -0.058689 -0.743274 -0.076075 -0.159714 0.113335 -0.140186 0.375365 0.023348 -0.168798 0.387275 0.530352 0.026321 -0.274774 -0.150119 0.058649 -0.231106 -0.146209 -0.328432 0.423888 -0.292858 0.249171 -0.180597 -0.311322 -0.170819 -0.038313 -0.602869 0.342159 0.240901 0.151614 -0.473259 -0.192501 -0.065675 -0.063165 0.255182 -0.071605 0.487836 -0.070024 0.258786 0.197587 0.014162 -0.197226 -0.195806 -0.113209 0.237002 -0.181118 -0.168069 0.040999 -0.060255 -0.681072 -0.183622 -0.263950 -0.044306 0.250344 0.222368 0.441118 -0.004730 -0.119754 0.793942 -0.208835 -0.968668 0.284163 -0.067979 0.240909 0.052759 -0.007485 0.055180 -0.534343 0.037019 0.059961 0.275912 -0.045727 -0.376205 0.063447 0.604078 -0.458438 0.157825 -0.386331 0.481462 -0.061143 -0.108160 -0.416118 0.099432 -0.174545 0.226759 -0.069833 0.166580 0.373572 -0.076604 0.316987 0.315245 -0.275938 -0.359891 0.127524 -0.021337 0.206708 -0.016369 0.238020 -0.024346 -0.133452 0.058471 0.171667 0.459136 -0.269701 0.170512 -0.489647 -0.223049 -0.089301 0.081991
TTAGG 0.254724 -0.757849 0.282919 0.167098 -0.021067 0.248476 -0.017410 0.437767 0.193712 0.032426 -0.052760 0.200622 -0.141129 0.224344 -0.041038 0.288103 0.539860 -0.171449 0.301046 0.072063 -0.170357 -0.306311 0.559005 0.255766 -0.005170 0.230077 0.089265 0.025929 -0.169914 -0.197443 0.089853 0.096555 -0.169234 -0.127823 0.564883 -0.081367 -0.351427 0.367807 -0.094229 0.680475 0.363587 -0.134831 -0.155736 -0.771967 0.095270 -0.016535 -0.182028 -0.297150 -0.259487 -0.721402 0.185566 0.108919 0.250162 0.107950 -0.328128 0.251394 0.015689 -0.585033 -0.091574 -0.375883 -0.266324 -0.126846 -0.240216 0.007946 0.044358 0.232375 0.112225 0.260753 -0.051659 -0.096481 0.052389 0.279703 -0.473548 0.146377 0.363076 -0.488520 -0.069075 -0.662549 -0.223197 0.139198 0.106176 -0.112306 -0.124113 -0.100803 -0.031852 0.524813 0.254842 0.002476 -0.172046 0.235254 0.457061 0.372351 -0.300756 -0.097716 -0.139631 0.325989 -0.345682 0.113692 -0.120256 0.017123 0.584887 0.045479 -0.250741 0.302181 -0.165666 0.240243 0.377934 -0.190335 0.142325 -0.025508 0.079036 0.012065 0.099379 -0.078953 0.270830 -0.050473 -0.344370 -0.201749 -0.057849 -0.117616 0.124105 -0.329782 -0.266911 0.295386 -0.745499 0.241346 0.092661 0.094192
TAGGG 0.277868 -0.180619 0.074735 -0.035776 0.409334 0.119366 0.223470 0.102898 0.017846 -0.069314 -0.333493 0.275595 -0.054753 0.357240 -0.038250 -0.129829 0.365975 -0.235888 -0.050557 0.335002 -0.054681 -0.409291 0.363568 0.127354 -0.190252 -0.133099 0.081384 0.052670 -0.327070 -0.220198 0.265117 0.272892 0.032372 0.135950 0.369139 0.041158 -0.063538 0.076094 0.372444 0.017341 0.378003 0.097998 -0.245671 -0.826336 0.012563 -0.042760 0.031492 -0.079607 -0.221647 -0.520480 0.104901 -0.309936 0.387191 0.096870 -0.274114 0.148025 0.019591 -0.216599 0.417633 -0.056145 -0.307068 0.069262 -0.255021 -0.004963 -0.330947 -0.089292 0.010204 -0.086196 -0.246915 -0.197541 -0.201001 0.241361 -0.091481 0.406968 0.363071 -0.117893 0.030647 -0.228833 -0.370995 -0.262947 0.172588 -0.002611 0.088320 -0.077700 -0.051255 0.018360 -0.096911 0.118042 0.119192 0.028766 0.252219 0.421368 -0.102046 -0.113727 -0.204974 -0.017141 -0.448158 -0.026855 0.049940 -0.117501 0.303970 -0.157100 0.078955 0.190288 0.070904 0.085539 0.129844 -0.080132 0.223508 0.025867 -0.099365 -0.340113 0.202546 -0.224776 0.176698 -0.167613 0.133934 0.236237 -0.145928 0.003224 0.315207 -0.042251 -0.131181 0.436334 -0.839696 0.292993 0.091331 0.025135
AGTGG 0.100552 0.185817 0.117560 0.139889 -0.109716 -0.174372 -0.309715 0.029775 -0.228231 0.058769 0.034926 -0.183119 -0.079433 0.029839 -0.337648 0.054584 -0.403702 0.183155 0.015917 0.198010 -0.355398 -0.008768 -0.311722 0.098893 0.043153 -0.395406 -0.181280 0.000801 0.215191 0.116147 0.002375 0.114741 0.139766 0.185364 0.231195 0.163419 -0.483288 -0.069644 0.459866 0.089016 -0.175070 -0.165471 -0.006766 0.090732 -0.248730 0.019605 -0.154937 0.191182 -0.049811 0.315169 0.127646 0.051621 0.485465 0.026170 0.017593 0.068744 0.103767 0.015691 0.111715 0.145003 0.124355 0.193692 -0.544069 0.100909 -0.331646 -0.217054 -0.148264 -0.655850 -0.363878 0.381395 -0.114431 -0.386188 -0.152764 0.457266 0.352256 -0.223873 0.353028 0.265587 -0.539516 -0.127164 0.169869 -0.318674 -0.069177 0.138712 -0.080430 -0.084931 0.102966 0.020925 -0.143779 0.143117 0.396544 -0.223606 0.406306 0.384984 -0.180368 -0.374246 -0.074085 0.463846 0.384128 -0.450308 -0.270177 0.450318 -0.250231 -0.219582 0.082916 0.152886 -0.193017 -0.488886 -0.052893 -0.125002 0.300475 0.005156 -0.233359 -0.019860 -0.018598 -0.372141 -0.320431 0.213451 0.033364 -0.359484 0.195062 0.304814 0.116132 0.734125 -0.323188 0.063270 0.300504 -0.382619
TATGG 0.009900 0.272727 0.128274 -0.117484 0.023638 -0.295235 0.220178 -0.078050 -0.283614 -0.123903 0.076587 -0.235184 -0.497310 -0.243816 -0.136380 -0.672356 -0.184195 -0.091169 -0.348199 0.032872 -0.985924 -0.169227 0.455061 -0.183274 -0.335626 -0.056512 0.258547 -0.294560 0.293256 -0.234080 0.156330 0.032035 0.160442 0.258967 -0.059498 0.120449 0.228531 0.008157 -0.286233 -0.467791 -0.263835 0.563517 -0.021096 -0.072920 0.048502 -0.072670 -0.120023 -0.187915 0.201583 0.150100 -0.113179 0.042614 0.258482 0.164386 -0.050089 -0.155230 0.055622 0.094746 -0.056827 -0.176320 0.287471 0.409800 -0.606536 0.124393 -0.107063 0.196599 -0.251900 -0.091324 -0.076864 -0.087088 -0.023089 0.149431 0.164327 -0.246159 0.365661 -0.072878 0.204304 -0.309351 -0.196237 -0.314226 -0.119185 -0.005761 0.153935 -0.006838 0.225143 0.297881 0.181425 0.359173 -0.161424 0.122492 0.212206 0.100949 -0.156144 0.161904 -0.220719 -0.265460 -0.027036 0.178092 -0.202001 0.036123 -0.044377 -0.215635 -0.285731 -0.385361 0.056578 0.259475 0.165941 -0.350847 0.020247 0.104158 0.010662 -0.044517 -0.432784 0.471721 0.175747 -0.441023 0.290195 0.252232 0.258871 -0.194725 -0.018571 -0.124248 0.047970 0.372693 -0.482780 -0.026966 0.220216 0.084689
ATGGG 0.207582 0.468451 0.048363 0.017060 -0.277943 -0.080394 0.228431 -0.213206 0.017405 -0.155904 0.040005 -0.421691 -0.327874 -0.218767 -0.083493 -0.171745 0.179502 -0.139179 -0.123779 0.077974 -0.670475 -0.457146 0.554489 -0.027809 -0.221211 0.152316 0.316108 -0.178719 0.166718 -0.070370 0.143965 0.024151 0.239046 0.234204 -0.065854 0.099989 0.307574 -0.309270 0.276867 -0.582912 0.237019 0.042454 -0.034524 -0.352073 0.129543 -0.012528 0.029330 -0.078663 0.399022 0.096817 0.097115 -0.034387 0.060672 0.459041 0.078055 0.076992 0.025790 0.140151 0.025880 0.112397 -0.110263 0.285391 -0.157582 0.219479 -0.490265 0.045938 -0.054100 -0.494510 -0.171053 -0.029598 0.109736 0.019459 0.413595 -0.268007 0.613703 -0.024964 0.155235 0.368176 -0.204906 -0.178120 0.246733 -0.118993 0.278882 0.230137 0.099643 -0.213879 0.053391 0.169000 -0.049850 0.342283 0.091722 -0.009434 -0.253286 0.294271 -0.172360 -0.277364 -0.121010 0.143335 -0.110879 0.199512 0.197854 0.272153 0.082974 -0.118466 0.029248 -0.206635 0.085672 -0.217652 0.026647 0.138760 0.137379 -0.195171 -0.183562 0.171531 0.225992 0.032405 0.368423 0.211529 -0.117172 -0.031678 -0.035928 -0.117959 -0.040483 0.363439 -0.455023 0.113435 0.191071 0.132199
GGAGG 0.155734 -0.376534 -0.472557 0.722600 -0.337744 0.577439 -0.180379 0.460473 -0.456066 -0.138067 -0.479853 0.148080 0.107833 0.100857 -0.227958 -0.050714 0.133267 -0.218493 -0.151402 0.016013 -0.119609 -0.977252 0.266038 0.266945 -0.449386 0.163680 -0.333394 -0.285106 0.250876 0.262382 0.239952 -0.017391 -0.071735 -0.076230 0.388022 -0.406304 0.063152 0.219310 -0.077876 0.083254 -0.199034 -0.422724 0.109993 -0.253742 0.321417 -0.247778 0.080129 0.513687 -0.158708 -0.534457 0.301682 0.019497 -0.117321 0.595318 -0.268066 0.241122 0.042704 -0.297550 -0.329326 -0.695539 -0.241099 0.517552 0.083596 0.485731 -0.462076 0.639399 -0.114092 0.110695 -0.353777 -0.112112 -0.245298 -0.413293 -0.041218 0.256024 0.511434 -0.398916 -0.329170 -0.021025 -0.150929 -0.239470 0.568029 -0.415447 0.060283 0.064518 -0.180761 -0.135659 -0.145759 0.418832 -0.179371 0.707143 0.136241 -0.219021 -0.134975 -0.027550 -0.388443 0.114833 -0.651082 0.957099 0.408794 -0.093725 0.003483 0.014786 -0.381800 0.020202 0.183826 0.177816 0.144983 -0.097577 0.209570 0.273661 -0.037051 -0.306008 -0.150683 0.066134 -0.009283 0.014644 -0.031150 -0.184959 0.190864 -0.046824 0.318074 0.484701 -0.037357 0.468676 -0.423108 0.492636 -0.158030 -0.283083
GAGGG 0.045597 -0.000580 -0.310390 0.497131 -0.089975 0.556187 -0.209588 0.235133 -0.337804 0.028114 -0.262395 -0.026280 0.225440 -0.136036 -0.220313 0.325309 0.435882 -0.312665 -0.106150 0.366443 -0.005648 -0.674238 0.180943 0.150260 0.234268 0.010563 -0.075623 -0.138357 0.125502 0.065284 0.505390 0.236599 -0.010360 -0.004983 0.224204 -0.224701 -0.037905 0.049412 0.436673 -0.101307 -0.122001 -0.343039 0.097489 -0.433772 0.491431 -0.148245 0.184213 0.668438 0.211254 -0.561217 0.091888 -0.005135 -0.228499 0.301048 -0.242978 0.297772 -0.025265 -0.423310 -0.304673 -0.273084 -0.341929 0.443202 0.029934 0.379596 -0.484900 0.206720 0.093248 -0.031728 -0.229628 -0.110097 -0.215650 -0.445882 0.212384 -0.242840 0.563231 -0.479357 -0.153700 0.042887 -0.034289 -0.373538 0.446243 -0.521249 0.211875 0.090635 0.028248 -0.365496 -0.282897 0.089911 -0.159088 0.423038 -0.051677 -0.314013 -0.433841 0.053020 -0.218858 0.140143 -0.630234 0.642708 0.580359 -0.139421 -0.068396 0.024325 0.159946 -0.064746 0.088289 -0.008223 0.163612 0.032429 0.212556 0.259258 -0.356945 -0.471245 -0.013441 -0.081066 0.174629 0.015394 0.040855 0.343982 -0.031411 0.133335 0.169799 0.330386 -0.086523 0.128478 -0.508945 0.079007 -0.107183 -0.553345
GTAGG 0.249208 -0.428302 -0.174419 0.518538 0.035217 0.105264 0.253545 0.233484 -0.108671 -0.229569 -0.406856 0.263652 0.248259 0.409839 -0.244141 -0.085911 0.174787 -0.166765 0.035002 0.291012 -0.102030 -0.684862 0.163341 0.114945 -0.064211 -0.227007 -0.104013 -0.135708 -0.120262 0.150087 0.291530 0.303792 0.093054 -0.127699 0.645849 0.107897 -0.052728 0.084439 -0.159537 0.320638 0.332375 -0.144615 -0.549367 -0.278355 0.392554 -0.200336 -0.140017 -0.020310 -0.306550 -0.583783 0.098343 -0.246433 0.555659 0.120857 -0.018438 0.459597 0.026234 -0.423963 0.154092 -0.774044 -0.162067 -0.279249 -0.260185 -0.026885 0.050910 0.065667 -0.114373 -0.020108 0.328841 0.030545 -0.090578 0.334765 -0.051433 0.291356 0.267902 -0.316212 0.015434 -0.399232 -0.372494 -0.046820 0.589364 -0.326491 -0.126676 -0.041542 -0.089267 0.027937 -0.061949 0.241327 0.179684 0.441253 0.255628 0.622637 0.163247 -0.271585 -0.187481 -0.265038 -0.694489 -0.011355 0.148131 -0.207448 -0.095137 -0.162909 0.025441 0.269423 0.623961 0.136561 -0.083814 -0.084729 0.284252 0.070814 -0.296173 0.171584 0.147480 -0.139914 0.044501 0.297191 0.208891 0.344332 -0.353463 -0.158497 0.393554 0.245652 -0.007216 0.492093 -0.564196 0.415320 0.080600 -0.097554
TCTGG 0.372303 -0.047696 -0.219579 0.126506 -0.127295 -0.026852 -0.497307 -0.035324 -0.258452 -0.353792 -0.148694 -0.361164 -0.459372 -0.354870 -0.529864 0.129344 0.673015 -0.116284 -0.062550 -0.392015 -0.000757 -0.609428 -0.076410 -0.469446 -0.400002 -0.000236 0.023916 0.104668 -0.132768 0.005595 0.107183 0.155511 0.144032 0.408167 0.166682 0.006862 0.175140 -0.102699 -0.268075 -0.614350 -0.467034 0.308915 -0.278630 -0.017264 0.018849 -0.052186 0.589219 0.030400 0.089976 0.567413 -0.185479 -0.198820 0.155910 -0.391101 -0.467928 -0.074400 -0.137468 0.065124 -0.421028 -0.471834 0.348669 -0.254364 -0.124826 -0.109649 -0.519334 -0.438456 0.309536 0.306471 -0.173930 0.690368 -0.100217 -0.044021 0.416118 0.715472 0.003102 -0.049375 0.261279 -0.350848 0.084585 0.024527 -0.067947 -0.349929 0.161040 -0.181685 -0.462570 0.117079 -0.011161 0.143947 -0.225672 -0.136216 0.023410 -0.129412 -0.151483 0.449593 0.215337 -0.202894 -0.140185 -0.155880 0.302661 -0.205552 0.100305 -0.015818 -0.090539 -0.563346 0.191553 0.160459 0.076876 0.142495 -0.054258 -0.072762 0.417215 0.211427 -0.191549 0.442898 -0.518278 -0.489016 -0.255486 0.259689 0.391128 -0.073571 -0.757274 0.010681 -0.408330 0.589828 -0.190918 0.313001 0.223979 0.301986
TCGGG 0.344450 -0.052431 -0.231483 0.682830 0.010562 -0.382679 0.364464 -0.221823 -0.378373 -0.290407 0.012293 0.034375 0.108544 -0.111596 -0.445315 0.080148 0.313150 -0.101126 0.005650 0.647963 0.700871 -0.322546 0.350207 0.181479 -0.314399 0.101223 0.134688 -0.407793 -0.170443 0.136006 0.095482 0.026432 0.470876 0.074372 0.377150 0.135059 -0.030518 0.241475 -0.084607 -0.330664 0.217329 -0.703809 0.140496 -0.091479 0.036470 0.217620 0.020583 0.264976 -0.154714 -0.163776 -0.368745 -0.495060 0.145327 0.202666 -0.376885 0.084965 0.176764 -0.286872 0.174679 0.757362 -0.323526 0.490710 -0.062200 0.551661 -0.055469 -0.235106 -0.475885 0.069739 -0.323151 -0.417578 -0.095498 -0.222790 0.156213 0.271479 -0.138861 -0.018545 -0.063189 0.348291 -0.063772 -0.974929 -0.128210 -0.112515 0.456274 0.011457 -0.275313 0.231015 -0.326669 -0.232725 -0.320301 0.169041 0.008412 -0.384242 -0.451309 0.422642 -0.033666 -0.321162 -0.046229 -0.125280 0.146805 -0.156131 -0.678060 0.118872 0.066586 -0.123762 0.065855 -0.151983 0.595612 -0.077100 -0.099511 0.418896 0.164831 -0.165897 0.469330 0.609846 -0.047250 0.539578 0.211717 -0.242652 -0.561634 0.150693 -0.322258 0.147171 -0.251115 0.017569 -0.403247 0.193533 0.113764 0.755389
ATTGG -0.166516 0.227174 0.123396 0.083510 -0.271346 -0.043690 0.053295 0.064286 -0.120701 -0.212329 0.122651 -0.446416 -0.097017 0.185385 -0.532758 -0.483681 -0.114314 0.274803 0.046798 -0.071507 -0.497036 0.247021 0.049473 -0.141163 -0.271630 0.190464 0.039193 0.192280 0.309019 0.048039 0.152097 -0.309570 0.261837 0.455556 -0.128763 -0.323170 0.004088 0.014069 0.136546 -0.119915 0.047477 0.004369 0.002794 -0.295370 0.710763 0.068179 0.175316 0.185422 0.025244 0.093258 0.112172 0.354094 0.250566 0.125256 -0.365012 0.119265 0.030858 0.178773 -0.016663 -0.195009 0.016798 0.357745 -0.364719 -0.077512 -0.613501 0.010148 -0.520502 -0.176206 -0.276182 0.074522 -0.131624 0.187552 0.175632 -0.033189 0.266117 -0.359526 0.090724 0.290526 -0.098505 -0.377937 -0.225646 -0.088949 -0.126255 -0.173799 -0.030654 -0.359726 0.240178 0.334360 -0.044779 -0.043969 0.201039 0.254758 -0.236234 0.333925 -0.062426 0.077696 0.054174 -0.278291 -0.153655 0.053953 0.016063 0.217820 -0.448152 0.306550 0.246431 0.352310 -0.140775 -0.157605 -0.500394 -0.001302 0.124503 -0.212309 -0.318462 0.047111 0.361010 -0.078895 -0.198531 0.241338 0.340082 -0.000650 -0.257328 -0.080022 -0.305989 0.381005 0.223905 0.067369 -0.000859 0.128883
TTATG -0.023936 0.042625 0.368228 -0.090903 -0.035695 -0.285977 0.015790 0.110914 0.152816 0.093793 0.093311 -0.311573 -0.438386 -0.551149 -0.077889 -0.496001 0.109661 -0.087302 0.042099 -0.258455 -0.807782 0.014451 0.457352 -0.051301 -0.266979 0.115506 0.190922 -0.123102 0.107318 -0.543613 -0.110939 0.049705 -0.218175 -0.190594 -0.040952 0.014063 -0.162822 -0.063285 -0.271309 0.009478 -0.124422 0.320862 0.032210 -0.030469 -0.100262 0.050831 -0.321611 -0.465930 0.354401 -0.273849 -0.088288 -0.025463 -0.047979 -0.059909 0.260792 0.006216 0.091817 -0.027169 -0.177344 0.099191 0.041637 0.013560 -0.446259 0.061327 0.167275 0.258796 -0.039259 -0.097457 0.060910 -0.308862 0.206049 0.184002 -0.050569 -0.733540 0.311175 -0.135800 0.066059 -0.548239 0.084133 -0.058551 -0.286817 -0.132034 0.106897 0.117735 0.443664 0.565184 0.406975 0.067717 -0.077919 0.282639 -0.042371 0.189474 -0.371442 0.105887 0.188161 -0.031749 -0.031249 0.286109 -0.535298 0.242684 0.374854 -0.059826 -0.148714 -0.432422 -0.671905 -0.030836 0.408743 -0.392293 0.014776 -0.151313 0.005242 0.239257 -0.245196 0.517327 0.307954 -0.051639 0.188103 -0.023272 0.115092 0.110856 -0.138471 -0.496939 0.175441 -0.094413 -0.698978 -0.388020 0.055829 0.075869
CTGGG 0.618970 0.061001 -0.622640 0.048147 -0.140973 -0.053028 -0.277723 -0.250451 -0.576866 -0.050609 -0.031587 -0.200003 -0.424138 0.003414 0.046195 0.061642 0.412396 0.036167 -0.258680 0.145642 0.040712 -0.429150 0.061825 -0.343711 -0.315466 0.118253 0.254911 0.277938 -0.327966 0.280231 0.352829 0.342890 0.040356 0.497183 0.030614 0.109613 -0.035055 -0.184920 0.111134 -0.637491 0.010014 0.149969 -0.056074 -0.355499 -0.129352 -0.173761 0.508200 0.239765 0.096281 0.006428 -0.002292 -0.148725 -0.055140 -0.109225 -0.411658 0.047672 -0.073517 -0.018155 -0.190524 -0.092528 -0.081260 -0.125809 -0.039538 -0.024228 -0.331456 -0.293532 0.175012 0.040072 -0.196013 0.252994 -0.078199 0.045353 0.424610 0.381092 0.570731 -0.065368 0.021129 0.074315 0.074748 -0.271360 -0.004706 -0.025632 0.291767 -0.265682 -0.085871 -0.322483 -0.243818 0.039672 -0.544420 -0.266594 -0.022307 -0.477494 -0.112925 0.409112 -0.213317 -0.217730 -0.562035 0.209710 0.137287 -0.309459 -0.075493 -0.089771 0.086468 -0.108636 -0.007416 -0.150112 0.076917 -0.241701 0.107383 0.172952 0.309361 -0.166522 -0.074829 0.044894 -0.193126 -0.325004 -0.054348 0.392089 -0.027140 0.025377 -0.097267 0.074885 -0.392740 0.440221 -0.324272 0.249714 0.033681 0.166875
TATGT -0.285526 -0.148407 0.153352 -0.143356 0.208435 -0.290312 0.337523 -0.135579 0.026969 -0.078426 -0.088494 0.056382 -0.121527 -0.300640 -0.059919 -0.755114 -0.114183 -0.172665 -0.034532 0.169171 -0.556909 -0.092275 -0.172365 -0.034779 -0.328136 -0.087970 -0.074777 -0.266461 0.154369 -0.602216 -0.373530 0.065720 0.100557 -0.284862 -0.009008 0.172824 0.192075 0.034620 -0.328772 -0.079757 -0.052618 0.445369 0.084915 0.263207 0.031725 0.394879 -0.306806 -0.329600 0.098516 -0.133843 0.048334 -0.267853 0.096016 -0.199438 0.278961 -0.220707 0.202843 -0.005618 -0.158916 0.189192 0.284370 0.002054 -0.436522 -0.012756 0.367634 0.081016 0.116618 -0.246034 0.213739 -0.391177 -0.131579 0.256562 -0.089134 -0.440354 -0.076910 -0.125548 0.281931 -0.696317 0.020645 -0.439586 -0.278950 0.030840 -0.020230 -0.139129 0.479672 0.386294 0.242655 0.295325 0.323617 0.506517 0.115845 0.540157 -0.269765 -0.297699 0.084080 -0.064022 0.072018 -0.148113 -0.497234 0.148604 0.144065 -0.410768 -0.032142 -0.412417 -0.321361 -0.115724 0.161217 -0.107962 0.238027 -0.118293 -0.427231 0.201199 0.048854 0.334838 -0.114974 -0.181063 0.558778 0.416600 0.014299 0.043078 -0.015655 -0.326369 0.437328 -0.126880 -0.438373 -0.130934 -0.025460 -0.038795
TTTAG -0.201832 -0.662845 0.479576 -0.251560 -0.083175 0.028701 0.075885 0.461678 0.387162 -0.027700 -0.250701 0.287943 -0.042762 0.089152 0.077247 0.316535 0.372168 -0.058028 0.132636 -0.244464 -0.263524 0.114607 0.175260 0.051376 0.142517 -0.304527 -0.155659 0.131325 -0.420153 -0.416628 0.019269 0.005256 -0.143229 -0.269572 -0.067456 0.248178 -0.515618 0.270728 0.344034 0.531246 0.123586 -0.079279 -0.063232 -0.458935 -0.035146 0.128436 -0.266379 -0.178101 -0.116915 -0.401258 -0.005701 0.018389 0.518996 -0.068987 -0.279210 0.037871 -0.231506 -0.487285 0.112118 0.124129 -0.069402 -0.134594 -0.235128 0.042372 0.066615 -0.079391 0.184052 -0.033896 0.114806 -0.047990 0.098267 0.248572 -0.529189 0.373896 0.109389 -0.062099 0.237672 -0.342241 -0.013958 0.098086 -0.375229 -0.337726 0.231413 0.032274 -0.027079 0.249796 0.255545 0.004332 -0.203972 -0.069257 0.244013 -0.079528 -0.246522 -0.012943 0.079251 0.014715 0.259695 0.255925 -0.395794 -0.064474 0.213806 0.340757 -0.191444 0.356255 -0.276792 0.342877 0.240506 -0.181867 0.257845 -0.115552 0.212323 0.211545 0.056915 -0.298146 0.007286 -0.154621 -0.105569 -0.268583 -0.093147 0.114910 -0.039850 -0.797021 0.044183 -0.042355 -0.516863 0.193565 0.169769 -0.153370
GTTTA -0.029695 -0.253930 0.470448 -0.280289 -0.216992 -0.146603 -0.054972 0.139631 0.278702 -0.135151 0.104430 0.089756 -0.275839 -0.012774 0.148889 0.217424 -0.131976 -0.148146 -0.029315 0.142273 -0.398115 -0.297658 0.322294 0.330994 0.129558 -0.138974 -0.100529 -0.296869 -0.038758 -0.290234 -0.237151 0.006305 -0.201222 -0.478734 -0.113627 0.261500 -0.701981 0.287027 0.107331 0.291628 -0.122545 0.123696 -0.097746 -0.327887 -0.101073 0.390650 -0.259689 -0.303942 -0.297346 -0.142602 -0.174816 0.041973 0.092553 0.009458 0.095801 -0.072193 -0.070978 -0.420635 -0.060194 0.335326 0.126333 -0.163747 -0.336048 -0.333067 0.271998 -0.233180 0.305022 -0.018654 0.022602 -0.299142 -0.009077 0.055126 -0.277269 -0.007869 0.301467 -0.146879 0.079003 -0.248253 -0.012639 -0.255986 -0.127573 -0.027257 -0.025787 -0.190959 -0.015606 0.752024 0.381053 0.257996 -0.321164 -0.021348 0.050861 0.037260 -0.311979 0.129767 0.169318 0.145813 0.069505 0.223727 -0.341658 0.175308 0.419231 -0.038579 -0.122302 -0.008610 -0.426207 0.396562 -0.057888 -0.237741 0.128577 -0.245908 0.086809 0.012574 0.105952 0.108172 -0.062486 -0.218152 0.027214 -0.052442 0.087060 0.245666 0.105655 -0.619107 0.156040 -0.252900 -0.402801 0.196145 -0.249983 -0.073629
TATTG -0.639259 -0.022688 0.046349 -0.222124 0.233303 -0.335286 0.047925 0.130584 -0.118953 0.083174 -0.000346 -0.005822 0.208302 -0.082805 -0.404510 -0.781880 -0.086186 0.105331 0.166994 0.225608 -0.612977 0.414979 -0.082993 -0.161266 -0.455346 0.288290 -0.349208 0.070038 0.091039 -0.050398 0.009243 -0.071600 0.127399 0.190366 -0.251734 -0.002716 -0.022152 0.072217 -0.318698 0.056914 0.133917 0.291266 -0.018471 -0.127241 0.522392 -0.004829 -0.107496 0.097953 -0.161184 -0.101542 -0.141116 -0.020430 0.052435 -0.189423 -0.089474 -0.065665 0.178770 0.085521 -0.035219 -0.142514 -0.061147 0.083777 -0.477564 -0.200758 -0.020214 0.138835 -0.277055 0.134083 -0.127368 -0.113337 -0.282948 0.332765 0.014035 -0.318379 -0.067989 -0.307018 0.014442 -0.293740 0.274500 -0.635371 -0.495031 -0.072125 -0.136233 -0.303344 0.229258 0.035502 0.081830 0.391476 0.016304 -0.023773 0.041737 0.616163 -0.248673 0.021114 0.042228 0.157480 0.053041 -0.244467 -0.178717 0.043004 -0.206829 -0.453896 -0.271208 0.128982 -0.137318 0.466220 -0.086905 0.014012 -0.184880 -0.103849 -0.149813 -0.090342 -0.014079 0.083504 0.312055 -0.225713 0.039043 0.273330 0.440771 0.223862 -0.244863 -0.096135 0.217250 -0.059943 0.022047 -0.527534 -0.095151 0.109493
TGTTA -0.069461 -0.188961 0.220520 -0.256539 0.026823 -0.110400 -0.023366 0.083939 0.070976 0.139375 0.026702 -0.041438 -0.216634 -0.027655 -0.094619 -0.064141 -0.004554 -0.071766 0.143929 0.066256 -0.210204 -0.251911 -0.101910 0.114553 -0.172371 0.249847 -0.099500 0.168884 0.303318 -0.412598 -0.298547 -0.069924 -0.270794 -0.254751 -0.025051 -0.019787 -0.292196 0.118882 -0.198617 0.132373 0.232752 0.202076 0.033235 -0.089410 -0.118791 0.488687 -0.045347 -0.252973 -0.106705 -0.070497 0.067578 -0.028910 -0.157261 -0.149999 0.195388 0.072885 0.243463 -0.073481 -0.177632 0.479163 0.132835 -0.135535 -0.194368 -0.369499 0.426417 -0.288020 0.201265 -0.217267 -0.095981 -0.173027 -0.166243 0.082929 -0.081626 -0.253013 0.080730 -0.253223 0.120791 -0.638487 -0.099869 -0.108386 -0.373271 0.134398 -0.152071 -0.214832 0.313647 0.480576 0.261577 -0.046041 0.172807 0.368748 0.105287 0.498751 -0.153027 -0.178719 0.249158 0.343797 -0.224281 -0.055627 -0.447040 0.209245 0.478933 -0.203889 -0.251949 -0.129719 -0.560944 -0.000691 -0.048738 -0.254436 0.031357 -0.207498 -0.090090 0.030953 0.130559 0.192278 -0.004436 -0.098171 -0.082560 0.196788 0.130709 0.185405 -0.172084 -0.424252 0.294845 -0.095547 -0.174517 -0.018587 -0.177519 0.170220
TTAGT -0.071673 -0.386589 0.712040 -0.280429 -0.033630 -0.486447 0.053177 0.235212 0.423381 0.248735 -0.042125 -0.026759 0.014170 -0.063563 -0.102183 0.183071 0.036941 0.204291 0.452771 0.142371 -0.228600 0.300158 -0.004334 0.335666 -0.190395 0.002243 -0.132323 0.024448 -0.264177 -0.233941 -0.458911 0.121971 -0.207585 -0.340661 0.094189 0.475677 -1.000265 -0.024587 -0.028132 0.598788 0.310555 0.073022 0.018157 -0.246112 -0.275194 0.239857 -0.458929 -0.410396 -0.083103 -0.387683 -0.122047 0.250591 0.462954 -0.473029 -0.160112 0.044303 -0.008720 -0.370410 -0.108589 0.273395 -0.148415 -0.311918 -0.453315 -0.006413 0.283681 -0.252723 0.089645 -0.413302 -0.151262 0.159956 -0.040237 0.098104 -0.794787 0.266696 0.147218 -0.338193 0.268677 -0.410883 0.168456 -0.227627 -0.171270 0.013411 0.081000 -0.200943 -0.132995 0.720626 0.435225 -0.081957 -0.044103 0.019459 0.502185 0.177800 -0.202398 0.212665 0.360258 -0.082542 0.244796 0.256205 -0.159409 -0.417678 0.282077 0.181023 -0.136485 -0.046480 -0.492036 0.074986 0.070908 -0.221677 0.084003 -0.328625 0.377066 0.398927 -0.012521 -0.070605 -0.011429 -0.172104 -0.218099 0.053506 0.118212 -0.181728 -0.047359 -0.597549 0.058748 0.222367 -0.414846 0.085061 0.166580 -0.137778
TGAGG -0.054736 -0.332668 -0.227943 0.466817 0.092398 0.535401 -0.352440 0.544207 0.012638 0.088400 -0.088278 -0.082555 0.266615 -0.378057 -0.444053 0.094611 0.174414 -0.297196 0.119898 0.577588 -0.190962 -0.119484 0.056092 0.043212 -0.031710 0.171849 -0.415973 0.343803 -0.096531 0.169121 0.501304 0.131291 -0.124340 -0.140323 0.521279 -0.001550 -0.042456 -0.168941 -0.081811 0.142114 -0.145742 -0.266991 0.136248 0.126034 0.393498 0.008954 -0.077403 0.153370 0.233139 -0.334384 -0.038258 -0.111854 -0.361274 0.580062 0.172393 0.382514 0.132685 -0.287654 -0.489719 -0.456869 -0.155557 0.175717 -0.135182 0.033330 -0.691093 0.191935 0.280569 0.352821 0.153595 -0.342570 0.192999 -0.233803 0.093161 -0.244244 0.350937 -0.601115 -0.065743 -0.470139 0.203729 0.248331 0.462725 -0.458777 -0.451896 0.225374 -0.003253 -0.075081 -0.204291 0.168367 -0.089380 0.204090 -0.319583 -0.048561 -0.122853 -0.144025 0.185777 0.163113 -0.362606 0.442100 0.518378 0.053565 -0.330508 -0.117354 0.163719 0.100711 -0.121594 0.019831 -0.130359 -0.177423 0.139589 -0.102594 0.070435 -0.057520 0.175882 -0.211542 0.108546 0.346548 0.158555 0.090167 0.199866 0.231618 -0.005004 0.331289 0.219394 0.061439 -0.238480 -0.141781 -0.062884 -0.091039
GTTAT -0.135036 0.243729 0.212319 -0.075656 0.040973 -0.405559 0.057092 -0.004283 -0.061624 -0.109733 0.171070 -0.167229 -0.286606 -0.273731 -0.002911 -0.331918 -0.005423 -0.190123 0.071694 0.345727 -0.442177 -0.139690 0.398676 0.075751 -0.183563 0.044864 0.058439 -0.234033 0.135796 -0.320230 -0.269229 0.029157 -0.156769 -0.172443 -0.215562 0.091538 -0.376998 0.208136 -0.319027 0.030147 -0.037449 0.369934 -0.119722 0.266008 0.303101 0.219387 -0.275444 -0.319446 0.129635 0.023776 -0.304090 -0.239438 -0.110371 0.120055 0.074101 0.103986 0.346351 -0.077511 -0.300839 0.163472 0.224767 -0.012159 -0.159843 -0.112549 0.178562 -0.117527 -0.026361 -0.022688 -0.181821 -0.236822 -0.310196 0.064536 -0.298404 -0.138170 0.266682 -0.256324 0.050372 -0.441753 0.084026 -0.513453 -0.061554 0.008620 -0.151985 -0.336167 0.119420 0.449043 0.422789 0.184703 0.034889 -0.068067 0.197697 0.483743 -0.326997 0.120732 0.172170 0.251258 0.156721 -0.108701 -0.103113 0.260369 0.164753 -0.370326 -0.284281 -0.287461 -0.210131 0.199817 0.054367 -0.178104 0.034115 -0.135967 0.030976 0.027138 -0.138874 0.383606 0.037465 -0.139732 0.035955 0.136028 0.349687 0.012902 -0.084506 -0.434364 0.322752 -0.317104 -0.474591 -0.295957 -0.388476 0.027133
CGTGG 0.154741 0.410741 -0.288931 0.196767 -0.147633 0.008029 -0.370201 -0.035876 -0.040949 -0.397781 0.192012 -0.032477 -0.086382 -0.375256 -0.189472 0.009755 -0.082570 0.376245 -0.316089 0.063770 0.044580 -0.222336 -0.397959 -0.096112 0.185533 0.030288 0.623398 -0.149215 -0.020077 0.225128 0.649936 -0.277879 0.232984 0.419392 -0.095891 -0.442234 0.110391 -0.027690 0.266137 -0.280699 -0.139966 -0.050024 -0.133003 -0.067875 0.028328 -0.098904 0.396225 0.265565 -0.156781 0.074577 -0.091883 0.394417 0.421001 0.090116 0.105835 0.345776 -0.142161 0.246156 -0.010191 -0.286890 0.286541 0.137547 -0.172842 0.119407 0.033395 -0.415813 -0.695352 -0.055720 0.215272 -0.245130 0.121518 -0.177329 -0.030082 0.143221 0.409990 -0.247762 0.134188 0.095758 -0.140715 -0.147889 0.181242 0.272808 0.192753 0.098762 -0.261941 0.266501 0.343338 0.220377 -0.113459 -0.100161 0.350518 -0.203490 0.082083 -0.008943 -0.422156 -0.153619 -0.068451 0.365842 0.380244 0.013852 -0.085727 -0.046880 -0.341991 0.110243 0.314027 -0.031696 -0.064854 -0.272134 -0.130658 -0.111265 0.324950 -0.166673 -0.108357 0.221257 -0.310688 -0.145123 0.185649 -0.248762 -0.059793 0.026097 0.372732 0.406086 -0.190287 0.375060 -0.201792 0.075503 0.010480 -0.192687
TCTGT -0.070434 -0.360097 -0.198122 0.021006 0.173007 -0.067568 -0.187393 -0.262438 0.154791 -0.186785 -0.296839 -0.052302 -0.071581 -0.401232 -0.324321 0.052283 0.548292 -0.201382 0.220731 -0.220037 0.312179 -0.518271 -0.589626 -0.182719 -0.359082 0.127482 -0.204427 -0.075190 -0.208963 -0.385274 -0.515902 0.148705 0.116918 -0.061553 0.098485 0.095253 0.140046 0.012284 -0.476846 -0.183818 -0.086255 0.008178 -0.201747 0.206725 -0.025165 0.406491 0.375102 -0.091142 0.023993 0.183699 -0.048847 -0.282666 -0.038175 -0.644849 -0.090696 -0.380107 0.028705 0.012291 -0.363282 -0.103103 0.298029 -0.572283 0.037679 -0.034652 0.042401 -0.366538 0.509311 0.169298 0.106119 0.328833 -0.211154 0.032364 0.063359 0.420942 -0.336013 -0.012496 0.420386 -0.627963 0.207586 -0.059205 -0.209768 -0.208180 -0.036297 -0.246422 -0.204790 0.269049 -0.035436 0.052771 0.312949 0.272574 0.091193 0.445298 -0.322936 0.123586 0.317761 0.091269 0.073659 -0.407335 0.036957 -0.016867 0.299604 -0.202889 0.083952 -0.510117 -0.168468 -0.072938 -0.015794 0.471553 0.219080 -0.058547 -0.108064 0.481605 0.336415 0.366080 -0.742210 -0.184801 0.149933 0.195567 0.208688 0.044211 -0.801480 -0.225904 0.166692 -0.069521 -0.131019 0.075867 0.029696 0.052641
TGTAT -0.495986 -0.130183 0.044706 0.066418 -0.009466 -0.528948 0.259058 -0.197304 -0.189806 -0.086419 -0.382652 0.266625 0.092466 -0.251771 -0.234722 -0.859323 -0.118743 0.016404 -0.098931 -0.063187 -0.639993 0.164994 -0.329552 -0.307839 -0.595645 -0.082991 -0.289608 -0.045015 0.085884 -0.356680 -0.224272 -0.005013 0.182220 0.008495 0.006438 -0.016974 0.221765 0.046595 -0.457880 -0.222595 0.082211 0.296391 -0.090488 0.453325 0.507015 0.211744 -0.057496 -0.033079 0.135621 -0.040465 -0.133399 -0.500806 -0.023573 -0.060749 0.286215 -0.060316 0.317971 0.209121 -0.023500 0.006962 0.098485 -0.013017 0.044263 -0.183864 0.301065 -0.199002 0.141367 -0.448091 0.275664 0.060648 -0.119218 0.319558 0.090257 -0.516149 0.031865 -0.216262 0.387252 -0.546013 0.171972 -0.199124 -0.379151 -0.134890 -0.000304 -0.057389 0.108139 -0.097435 0.008155 0.197383 0.414180 0.389723 -0.155740 0.828682 -0.268721 -0.323020 0.106729 -0.170931 0.002007 -0.372125 -0.482848 0.358682 0.041569 -0.527055 -0.000600 -0.124786 -0.291674 0.115737 0.003884 -0.227950 0.156229 0.001386 -0.391303 0.094675 0.063964 0.144625 -0.117052 0.011571 0.339082 0.532393 0.043574 0.158838 -0.445542 -0.322595 0.448705 -0.184326 -0.089205 -0.286792 -0.162870 0.244281
GATGG 0.200374 0.476719 -0.199082 0.114110 -0.443936 0.283798 0.022548 -0.023740 -0.223614 -0.186940 0.019820 -0.402267 -0.405790 -0.414764 -0.691479 -0.090518 -0.004460 -0.368507 -0.145879 -0.115319 -0.573347 -0.438329 0.199347 -0.421996 -0.032630 0.152578 0.121600 0.213732 0.454096 -0.092334 0.465553 -0.012511 -0.088335 0.192436 -0.070113 -0.337742 0.102837 -0.249744 0.461154 -0.450458 0.263895 -0.124132 0.135724 0.087616 0.025712 0.005063 -0.201168 0.219541 0.239638 0.268405 0.180004 -0.038409 0.243000 0.364738 -0.257997 0.164561 -0.278030 0.042231 -0.049509 -0.315793 -0.031205 0.241197 -0.400165 0.145985 -0.407527 -0.372329 -0.053123 -0.299575 0.048119 0.111109 0.020490 -0.027304 0.166259 -0.039209 0.191240 0.059094 0.073300 0.642254 -0.111552 0.100472 0.153644 -0.320351 0.104058 0.433300 -0.081725 -0.132229 0.747893 0.337793 -0.301748 0.415310 0.035169 -0.263088 -0.328078 -0.057733 0.062765 -0.246118 -0.434413 0.393305 0.209971 0.001328 0.011379 0.557673 0.121771 0.135006 0.370983 -0.057288 0.127847 -0.225395 -0.212737 -0.075147 0.112638 -0.134791 -0.207224 0.198845 0.297809 -0.251894 0.350140 -0.114918 0.160541 -0.387559 -0.009022 -0.001660 -0.268555 0.472010 -0.382749 0.310445 0.339807 0.164179
ATGTT -0.147361 0.065271 0.401377 -0.203503 -0.429245 -0.079174 0.215669 -0.010080 0.175642 -0.072860 0.059670 -0.099654 -0.516582 -0.298155 -0.008020 -0.085724 -0.057723 -0.232513 0.165682 -0.081535 -0.303244 -0.334475 0.515229 0.084936 -0.239251 -0.025798 -0.155386 -0.300125 0.283499 -0.402734 -0.335309 -0.000392 -0.164212 -0.398164 -0.311919 0.198171 0.174941 0.015237 0.025560 -0.078980 0.193701 0.234712 0.096607 0.193951 0.273791 0.384885 -0.258425 -0.365838 0.196622 0.091659 -0.116738 -0.056882 -0.219840 0.373501 0.179335 -0.033732 0.059882 -0.056280 -0.131572 0.340902 -0.015745 -0.076228 -0.064853 0.098624 -0.110849 -0.107530 0.285816 -0.238868 0.098831 -0.130020 -0.013351 0.212389 -0.057503 -0.359947 -0.040409 0.033376 -0.082322 -0.210899 0.047704 -0.039275 -0.130388 0.124943 0.003777 0.048538 0.262788 0.255420 0.468593 0.135907 0.172523 0.356190 0.049021 0.353302 -0.321947 -0.045005 0.302759 0.228140 0.282726 -0.140158 -0.591725 0.387525 0.512131 -0.127216 0.219694 -0.155556 -0.264449 -0.032270 0.049616 -0.158386 0.123625 -0.207559 0.015441 0.072884 0.011665 0.136994 0.082704 0.055223 0.285178 0.064046 0.209862 0.241762 -0.213746 -0.475171 0.475082 -0.386159 -0.097261 0.077427 -0.063923 0.215257
ATTGT -0.463058 -0.171191 0.079375 -0.022504 -0.098465 -0.134896 0.118456 -0.039265 0.016085 -0.009718 -0.113372 -0.091029 0.257548 0.104251 -0.425406 -0.528468 -0.098564 0.111064 0.328501 0.046585 -0.146433 0.261453 -0.509127 -0.031113 -0.352310 0.304981 -0.285562 0.180232 0.060727 -0.198949 -0.394614 -0.292409 0.260270 0.120460 -0.097681 -0.154248 0.037575 0.134752 -0.165452 0.211320 0.350594 -0.102354 0.046565 0.063734 0.613044 0.504594 0.030610 0.009425 -0.007797 -0.069881 0.298080 0.025732 -0.017727 -0.308919 -0.035385 0.033843 0.199747 0.100884 -0.073132 0.115540 -0.040802 -0.176298 -0.211528 -0.174504 -0.016535 -0.056708 -0.155561 -0.195730 -0.016206 -0.069786 -0.233339 0.336002 -0.019885 -0.202054 -0.197166 -0.337356 0.198285 -0.154680 0.131020 -0.553570 -0.415650 -0.059596 -0.245332 -0.320909 0.182824 -0.219976 0.183063 0.291116 0.412044 0.251174 0.165355 0.784487 -0.373772 -0.096869 0.303029 0.412010 0.164843 -0.526584 -0.366024 0.117015 0.227628 -0.090717 -0.177367 0.257161 -0.268624 0.029270 -0.181477 0.156089 -0.234814 -0.070110 -0.270993 0.106745 0.138767 -0.033369 0.011699 0.063032 0.068825 0.343410 0.154554 0.272373 -0.454799 -0.327295 0.185614 -0.214894 0.344478 -0.068627 -0.180508 0.112323
TAGTT -0.106832 -0.155724 0.659186 -0.385770 0.119091 -0.253513 0.222577 0.333562 0.184866 0.116113 -0.266185 0.134192 -0.125023 0.180040 0.062603 -0.090277 -0.152075 -0.147565 0.338541 0.198970 -0.138146 -0.126173 0.432629 0.210084 -0.376772 -0.431150 -0.353964 -0.004257 -0.240994 -0.372682 -0.351883 0.283413 -0.350760 -0.273737 -0.009854 0.580050 -0.456866 0.256488 0.078063 0.364921 0.351188 0.286243 -0.069133 -0.127129 -0.134804 0.248650 -0.246835 -0.416852 -0.412553 -0.329425 -0.456668 -0.051839 0.353481 -0.053915 -0.054328 -0.062488 0.041200 -0.248219 0.311936 0.265081 -0.138936 -0.259191 -0.495009 -0.118995 -0.072624 -0.523194 0.042456 -0.131734 -0.034968 0.114063 -0.304010 0.265903 -0.595703 0.542498 -0.095334 0.022193 -0.139740 -0.371777 -0.179152 -0.194893 -0.082040 0.104520 -0.105622 -0.229526 -0.145768 0.491303 0.501535 0.070131 0.052058 -0.397626 0.305782 0.451209 0.049236 0.052014 0.354648 0.129637 0.192350 -0.045841 -0.198534 -0.229437 0.327429 -0.172777 0.191979 -0.067845 -0.232486 0.424051 -0.018381 -0.300173 0.242156 -0.138539 0.265914 -0.099692 0.216760 -0.210768 0.104642 -0.311943 -0.085563 0.091983 0.360887 0.039529 0.159112 -0.629910 0.255090 0.013766 -0.348347 0.168849 0.119378 -0.011960
TCTTG -0.365148 0.049266 0.223927 -0.082667 -0.131134 -0.084556 0.212608 -0.048661 0.300739 0.209616 -0.096684 -0.124136 0.222694 -0.597181 -0.493917 -0.293616 0.469567 0.065478 0.471305 0.053382 0.361117 -0.047620 -0.380121 -0.113245 -0.360245 0.096245 -0.513212 0.288474 0.207331 0.081123 -0.088563 -0.046587 0.138460 0.199735 -0.275133 0.066338 0.377391 -0.040799 -0.272900 -0.190055 -0.178485 -0.037626 0.098838 0.046731 -0.068098 -0.094575 0.020360 0.318468 -0.243991 -0.145827 -0.133487 -0.064866 -0.463808 -0.317149 -0.141659 -0.092917 -0.119273 0.035981 -0.069727 -0.257339 -0.041351 -0.171580 -0.105777 0.014691 -0.595161 -0.269482 0.090042 -0.061777 0.233060 0.265037 -0.361927 0.144562 -0.170317 0.231248 -0.113456 -0.126199 -0.168824 -0.154083 0.243820 -0.174381 -0.086202 0.191128 -0.003771 -0.094920 -0.206238 0.157432 0.290761 -0.337714 -0.044091 -0.049942 -0.029857 0.473514 -0.126129 0.022376 0.293863 -0.205302 -0.224489 -0.526882 0.005408 0.337208 -0.139013 -0.129584 0.076751 -0.263221 -0.025263 0.156291 0.207668 0.147060 -0.114266 -0.064698 -0.140098 0.288055 0.086814 0.071424 0.087642 -0.023308 -0.158113 -0.240719 0.294465 -0.021227 -0.546251 0.528113 0.097721 0.263616 0.094028 -0.421767 -0.009069 0.061636
TTGTA -0.597333 -0.406859 0.291790 -0.099635 -0.150897 -0.275187 0.363683 0.120336 0.027657 -0.043267 -0.424560 0.303418 0.425347 0.227601 -0.068814 -0.405286 -0.223656 0.026307 0.147811 0.023477 -0.365771 -0.016397 -0.258025 -0.074779 -0.305380 0.049502 -0.546355 0.133365 0.336501 -0.012106 -0.153533 -0.015954 0.192164 -0.081397 -0.318588 0.326651 0.056729 0.167617 -0.225894 -0.156671 0.438788 0.239842 -0.039982 -0.111273 0.550922 0.169742 -0.037954 0.082080 -0.457340 -0.367950 -0.008410 0.027965 0.045372 -0.266309 0.002358 -0.181191 -0.129405 -0.086018 0.209068 -0.155194 -0.070827 -0.193313 -0.215752 -0.272928 0.328280 -0.299703 0.039538 -0.426054 0.295573 -0.046163 -0.246039 0.483033 0.120178 -0.246137 -0.260548 -0.091754 -0.008068 -0.381395 0.115822 -0.478536 -0.248836 -0.065936 -0.054771 -0.221669 0.168783 -0.165574 0.006005 0.327035 0.234518 0.244867 -0.135148 0.841537 -0.208598 -0.319809 0.271560 -0.148691 -0.077932 -0.505085 -0.569813 0.015678 -0.175412 -0.418430 -0.006539 0.211754 -0.048000 0.457729 -0.230233 -0.053742 -0.063543 -0.048359 -0.547950 0.243521 0.199224 -0.103624 0.001154 0.162342 0.340782 0.439984 0.005779 0.303415 -0.195813 -0.153871 0.312064 -0.081780 0.414466 0.268368 0.039912 0.115812
ATTTG -0.567365 -0.168432 0.051919 -0.038138 -0.298006 -0.107278 0.016127 0.192926 0.147648 -0.024669 0.021533 0.049928 0.222234 -0.011472 -0.459914 -0.404278 -0.112874 0.121223 0.207811 -0.274514 -0.495663 0.418355 -0.190389 -0.075744 -0.321864 0.113196 -0.391707 0.152661 -0.150598 -0.006109 0.034107 -0.131524 0.249730 0.070306 -0.081037 -0.181099 0.002205 0.055752 0.176123 0.146999 -0.016316 -0.085507 0.022365 -0.209439 0.590613 0.144716 -0.051985 0.077755 -0.015793 -0.039532 -0.066231 -0.023424 0.122641 0.033790 -0.070220 0.019357 -0.154297 0.061576 0.219269 -0.219106 -0.197430 -0.013669 -0.196382 -0.185545 -0.472094 0.064638 -0.077010 -0.092381 0.124818 0.000170 0.172637 0.137856 -0.009815 -0.341863 -0.132876 -0.184114 0.039012 0.303236 0.146132 -0.203037 -0.511327 -0.334019 -0.140196 -0.105543 -0.051631 -0.299261 0.048491 0.456495 -0.079667 -0.151428 -0.205293 0.371592 -0.357257 0.231488 0.180930 0.129960 0.111091 -0.266900 -0.411235 0.175737 -0.089574 0.096478 -0.194457 0.484663 -0.202323 0.319922 -0.288409 -0.117840 -0.275003 -0.077874 -0.103992 -0.128923 0.081733 -0.217303 0.131133 -0.080670 0.142622 0.037036 0.085117 0.402617 -0.428146 -0.430923 -0.091120 -0.264550 0.288821 -0.252836 -0.154895 0.070670
TCGTT 0.149680 0.254069 0.261951 0.252005 -0.489430 -0.340069 -0.053162 0.191068 -0.166319 -0.458342 0.407886 0.167428 -0.141610 -0.478113 -0.087797 0.031909 0.484799 -0.143583 0.096728 0.312903 0.703704 0.322141 0.392705 0.189321 -0.110796 -0.263370 0.132214 -0.437914 -0.250852 -0.071076 -0.304070 0.001727 0.085024 -0.256529 -0.484795 0.364491 -0.319358 0.530554 -0.205871 -0.045517 0.237778 -0.153646 0.267519 0.232780 0.272618 0.070877 0.094386 -0.162084 -0.630780 0.186907 -0.299666 0.140166 -0.043966 0.081928 -0.378097 -0.306992 -0.166985 -0.272722 0.021624 0.215674 -0.035983 -0.010766 -0.248370 0.123340 0.198127 -0.153456 -0.207009 0.335918 0.366831 -0.222786 -0.407190 0.074385 -0.315470 -0.018180 -0.308536 -0.035630 -0.139915 -0.362784 0.184763 -0.150644 -0.063586 0.362035 0.225941 0.005888 -0.478409 0.655765 0.798788 0.321874 0.016929 -0.328638 0.337876 0.194084 -0.679026 -0.109154 0.306039 0.020835 0.531080 -0.281427 0.347399 0.353860 0.056638 -0.564029 0.272435 -0.045269 -0.211739 -0.161487 -0.025881 -0.102913 0.014152 -0.112208 0.475723 0.168015 0.159782 0.239892 -0.484918 0.275990 0.011256 -0.276738 0.162178 0.560958 -0.205176 -0.149062 0.100402 -0.528648 -0.103027 0.114742 0.112654 0.036172
GTATT -0.246167 -0.337558 0.148997 0.288565 -0.045412 -0.376968 0.105811 0.065244 0.007573 -0.168552 -0.316033 0.077220 0.298035 0.076612 -0.178228 -0.832939 -0.199498 0.327147 -0.124691 -0.105966 -0.582856 0.456146 -0.209053 -0.019573 -0.232488 -0.282816 -0.134667 0.057497 -0.153737 -0.017874 -0.208560 0.050807 0.159702 0.013016 0.150909 0.002265 -0.502727 -0.043386 -0.417610 0.115918 0.120758 0.225282 -0.473134 0.022909 0.623227 0.017352 -0.082922 0.074701 -0.052379 -0.369128 -0.188063 0.032785 0.546311 -0.620342 -0.214233 -0.076088 0.081406 0.003215 -0.052016 -0.215059 0.069992 -0.246053 -0.364600 0.088039 0.102491 0.035698 -0.429659 -0.223263 0.300301 0.039076 0.012727 0.438590 0.257009 -0.324426 0.077733 -0.453255 0.155737 -0.365705 0.026243 -0.636798 -0.357999 -0.238659 -0.158372 -0.387169 0.086120 0.017976 0.116071 0.262774 0.082124 -0.024771 -0.118097 0.562045 -0.157397 -0.057594 0.205636 -0.343593 0.152088 -0.261574 -0.052578 -0.014129 -0.263110 -0.530850 -0.128288 0.035207 -0.082310 0.372154 0.059447 -0.111305 -0.249833 -0.042317 -0.419424 0.258754 -0.060629 0.227137 0.206625 0.146503 0.152861 0.512736 -0.074822 0.254342 -0.178226 -0.507410 0.157769 0.059736 -0.076914 -0.054724 -0.309754 -0.133869
TGCGG -0.075959 0.142719 -0.575108 0.412444 0.453837 0.064747 0.145615 -0.280611 0.375975 -0.356581 -0.281395 0.156791 0.055495 -0.246493 -0.130083 -0.213265 0.108158 -0.073489 0.446870 -0.273532 -0.218214 -0.558465 -0.443276 -0.194267 -0.361523 -0.071486 -0.063363 0.186110 -0.489762 0.221562 0.339700 -0.116919 -0.717776 -0.566522 -0.059156 -0.477985 -0.333166 -0.418793 -0.065757 -0.089077 -0.173088 0.141125 -0.352002 -0.122858 -0.358521 -0.168757 -0.262315 -0.114212 0.014843 -0.189686 -0.539365 -0.374703 -0.020073 0.102795 0.035321 0.549265 0.209169 0.374650 -0.161243 -0.174941 -0.327803 -0.120680 -0.049646 0.250238 0.087950 0.018638 -0.215307 0.308488 -0.513047 0.199076 -0.212790 -0.403347 -0.093409 0.007544 0.011673 -0.045507 -0.631948 0.889178 0.146795 -0.600429 0.193852 -0.138447 0.230984 0.268159 -0.231279 0.229922 -0.420836 -0.216725 -0.198355 0.412081 0.113607 0.079417 0.105847 0.460477 -0.245868 -0.087375 -0.304059 0.309023 -0.534602 0.028598 -0.418718 -0.051588 -0.073675 -0.048729 -0.123832 0.164446 0.032912 -0.165170 0.051511 0.284965 0.013363 -0.156515 0.021089 0.261551 0.181912 0.078954 -0.065717 -0.304191 -0.488823 0.123418 0.116692 0.122520 -0.205442 -0.128146 0.234202 -0.583613 -0.158150 0.071866
GTCGG 0.120448 0.139652 -0.400463 0.711688 -0.042240 -0.129603 0.758099 -0.145289 0.034974 -0.294008 -0.110071 -0.204072 0.220918 -0.177982 -0.812457 -0.049368 -0.211323 -0.137372 0.080101 0.485191 0.300071 -0.680835 -0.262896 0.267832 -0.282268 0.102049 0.069081 -0.392224 -0.363278 0.168561 0.320426 -0.336076 0.472677 -0.462455 0.451757 -0.195169 0.206619 0.156223 -0.460740 0.056934 -0.165753 -0.757736 0.016158 0.272930 -0.310435 0.202542 -0.214431 0.137778 -0.149525 -0.062518 0.119474 -0.646802 0.339449 -0.104575 -0.303033 0.709004 0.283984 -0.391182 -0.010063 0.561161 -0.143482 0.189797 -0.442113 -0.100880 0.207973 0.095499 -0.459760 0.354303 -0.461107 -0.387894 -0.036136 -0.281648 -0.163492 0.320947 -0.216366 -0.049537 0.034292 0.339517 0.302548 -1.093717 -0.063013 -0.027199 0.307999 0.084475 -0.080133 0.471626 -0.372849 -0.054670 -0.172913 0.238834 0.203834 -0.590941 -0.378579 0.537301 -0.157116 -0.435303 -0.478976 0.213211 0.272095 -0.281418 -0.764799 0.495966 -0.068408 -0.149025 0.159499 -0.182132 0.389385 0.485461 0.115039 0.324797 0.032002 0.194458 0.159829 0.664229 0.021488 0.511302 0.199564 -0.253850 -0.603225 0.065758 0.317954 0.249224 -0.465349 -0.047054 -0.146669 0.406573 0.063997 0.441065
CTTGG -0.253009 0.136592 0.267584 -0.048489 -0.250505 0.116424 0.270854 -0.170007 -0.036223 0.004282 -0.019855 -0.221664 -0.287854 -0.204167 -0.170736 -0.322907 0.037129 0.255256 0.227444 0.244018 0.247862 0.009689 -0.275115 -0.307338 -0.260745 0.068898 -0.074015 0.543868 0.486285 0.360229 0.336760 0.045132 0.130424 0.369572 -0.373159 -0.070696 0.303032 -0.104491 -0.192556 -0.491161 -0.335724 0.048605 0.295357 -0.207228 -0.228556 -0.398256 0.150772 0.379228 -0.456650 -0.418025 0.176256 0.451582 -0.216660 0.072768 -0.383897 0.140065 -0.409376 0.141603 0.158328 -0.379286 0.148011 0.125717 -0.409576 0.060487 -0.540716 -0.275257 -0.379276 -0.341196 0.092852 0.013174 -0.136747 -0.120595 -0.129050 0.121607 0.054152 -0.100999 -0.378058 -0.123393 0.025956 -0.247464 -0.032718 0.253097 0.130372 0.036948 0.070882 -0.286982 0.445997 -0.206048 -0.442763 -0.286033 -0.026856 0.251233 -0.053117 0.267568 -0.311593 -0.164223 -0.465144 -0.243589 -0.234507 -0.007118 -0.303395 0.059086 -0.076183 -0.155509 0.192226 0.339311 0.471400 -0.436106 -0.186104 -0.037447 0.180883 0.185670 -0.128810 -0.009248 0.194718 -0.156793 -0.387728 -0.112570 0.335572 -0.234457 -0.139209 0.801301 -0.224913 0.449358 0.170408 0.000757 0.207853 0.183371
AGGTG 0.173920 -0.052539 -0.146587 0.347223 0.220696 0.293393 -0.305797 0.211817 0.003849 -0.080391 -0.045121 0.128241 0.081680 0.215719 -0.309765 0.227431 -0.126774 -0.179374 -0.129283 0.214641 -0.050368 -0.317472 -0.425405 0.101217 0.371359 -0.032965 -0.200172 0.284795 0.100820 -0.090399 0.377834 0.025136 -0.081095 -0.151878 0.467013 -0.261580 -0.022970 0.162974 -0.183934 0.521795 -0.445737 -0.411225 -0.140044 -0.063919 -0.008983 0.052258 -0.283313 0.145650 0.064733 0.081091 0.225496 -0.142934 0.160831 0.293424 0.160251 0.392424 0.122168 -0.199583 -0.456306 -0.277360 0.148912 -0.038336 -0.272865 0.054850 -0.235407 0.436571 0.073159 0.409307 0.073713 0.056039 0.038473 -0.177218 0.024238 -0.005760 0.227249 -0.426677 0.266568 -0.266690 -0.464529 0.320563 0.089596 -0.395850 -0.322607 0.130629 -0.021917 -0.118092 0.015900 -0.061901 -0.123057 0.462859 0.204490 0.435851 0.231438 -0.429369 -0.139595 0.049542 -0.591082 0.230516 0.218582 0.234113 -0.067474 0.186527 -0.299453 0.194543 0.373074 0.098127 -0.231800 -0.336022 0.174950 -0.095768 -0.054909 -0.132397 0.076631 -0.046448 0.110613 -0.059527 -0.090842 -0.092630 -0.358357 -0.173445 0.204110 0.291332 0.426320 0.214888 -0.274564 -0.274282 0.005293 -0.229252
AGTTT -0.301253 -0.217311 0.476316 -0.137172 -0.454013 -0.295144 -0.225421 0.250997 0.198043 0.130102 -0.061354 0.107957 -0.045404 -0.041957 0.182654 0.252372 -0.320670 -0.072832 0.340115 0.021432 -0.338109 0.184988 0.296190 0.283920 -0.023774 -0.577966 -0.593983 -0.252835 -0.289864 -0.117377 -0.529372 0.293922 -0.127694 -0.519227 -0.138219 0.563216 -0.616206 0.191958 0.408975 0.476907 -0.064455 0.028245 0.112332 0.021175 0.019851 0.146877 -0.356251 -0.143925 -0.305566 0.053857 -0.347526 0.101270 0.235251 -0.009248 -0.039392 -0.358804 -0.144582 -0.414662 0.237392 0.332344 -0.071276 -0.168486 -0.247086 0.032300 -0.125145 -0.253320 0.303952 -0.260627 0.049810 0.271297 -0.033149 -0.135439 -0.475766 0.316158 -0.082474 0.072402 0.157675 0.083789 -0.010583 -0.161456 -0.127667 -0.297985 -0.115912 -0.064969 0.002519 0.298491 0.189655 0.265765 -0.218439 -0.247662 0.068152 -0.159002 -0.005209 0.491998 0.321626 -0.030822 0.362997 0.147278 -0.072326 -0.249012 -0.050122 0.141884 0.240853 -0.191099 -0.371767 0.477800 -0.178511 -0.315306 0.119060 -0.323676 0.055661 0.229452 -0.018447 -0.292031 -0.062835 -0.290921 -0.135440 -0.001217 0.273653 0.165201 -0.027643 -0.539429 0.444641 -0.293492 -0.253316 0.132311 0.016307 -0.316950
GCTGG 0.612365 0.137950 -0.360458 0.084462 -0.216478 0.024753 -0.455420 0.091814 -0.917768 -0.493393 0.002938 0.001595 -0.566492 -0.227755 -0.369054 0.123874 0.091670 -0.148265 -0.148922 -0.151074 -0.361318 -0.460517 0.042947 -0.508238 -0.343213 -0.075070 0.284079 0.269316 -0.107512 0.372096 0.787884 0.323447 -0.049796 0.525136 0.084374 -0.271443 -0.102430 -0.289501 -0.268976 -0.644974 -0.088627 0.126357 -0.124428 0.052382 0.072715 -0.336441 0.421285 0.076168 0.183866 -0.297643 0.322961 0.006450 0.322200 0.079266 -0.367753 0.483844 -0.246964 -0.007760 -0.160550 -0.197812 0.249782 -0.199373 -0.423768 -0.400483 0.002480 -0.130930 0.048146 0.149273 -0.289251 0.487351 0.026176 -0.083151 0.484841 0.526451 0.283317 0.036031 0.091266 0.235624 -0.176635 -0.188105 -0.059284 -0.046509 0.425658 0.339853 -0.279195 -0.142448 -0.078072 0.249817 -0.116675 -0.340644 -0.077802 -0.521760 0.072917 0.577998 -0.473565 0.099569 -0.609163 0.667609 -0.264890 -0.251648 -0.251056 0.120654 -0.358858 -0.059921 0.233589 -0.076304 0.004997 -0.387329 0.016395 -0.141637 0.425532 0.076170 -0.021543 0.032217 -0.207526 -0.301887 -0.453574 0.444438 0.114859 -0.173231 0.288937 -0.017262 0.128097 0.264424 0.105850 -0.130132 0.398534 0.365666
